svm_type c_svc
kernel_type linear
nr_class 3
total_sv 141
rho -3.7811416820140002 -9.880358520741986 -5.584445222070566
label 1 2 3
nr_sv 24 71 46
SV
100.0 0.0 1:0.45910295844078064 2:0.19497564435005188 
100.0 0.0 1:0.21909207105636597 2:0.36839041113853455 
100.0 0.0 1:0.14282962679862976 2:0.3781444728374481 
100.0 0.0 1:0.12410632520914078 2:0.426860511302948 
100.0 0.0 1:0.33891400694847107 2:0.21416816115379333 
100.0 0.0 1:0.3690335750579834 2:0.4313063323497772 
100.0 0.0 1:0.27449679374694824 2:0.3609621822834015 
100.0 0.0 1:0.11157043278217316 2:0.4950202703475952 
100.0 0.0 1:0.4545614719390869 2:0.13216672837734222 
100.0 100.0 1:0.4387046992778778 2:0.4982817471027374 
93.97690572699955 0.0 1:0.010050995275378227 2:0.43415209650993347 
100.0 0.0 1:0.39718419313430786 2:0.1623636931180954 
100.0 0.0 1:0.3750712275505066 2:0.13626793026924133 
100.0 0.0 1:0.34685438871383667 2:0.20753684639930725 
100.0 0.0 1:0.154190793633461 2:0.33671000599861145 
100.0 0.0 1:0.3923397362232208 2:0.35653549432754517 
100.0 0.0 1:0.4415809214115143 2:0.32460662722587585 
100.0 0.0 1:0.3799668550491333 2:0.18603570759296417 
100.0 0.0 1:0.3229048550128937 2:0.1691732257604599 
100.0 0.0 1:0.3626055419445038 2:0.21450738608837128 
100.0 17.81044360312384 1:0.46040308475494385 2:0.47394758462905884 
100.0 0.0 1:0.24821637570858002 2:0.3569258749485016 
100.0 0.0 1:0.31090328097343445 2:0.4436264634132385 
100.0 0.0 1:0.34252631664276123 2:0.3819846510887146 
-0.0 100.0 1:0.28690746426582336 2:0.814540445804596 
-0.0 100.0 1:1.534669041633606 2:0.09705560654401779 
-100.0 0.0 1:0.7090703248977661 2:0.019230591133236885 
-0.0 100.0 1:0.3908645510673523 2:0.9398201107978821 
-0.0 100.0 1:0.6620017290115356 2:0.47600340843200684 
-0.0 100.0 1:0.3092799484729767 2:1.1525706052780151 
-100.0 0.0 1:-0.3236011266708374 2:0.9296950697898865 
-100.0 0.0 1:0.6363511681556702 2:0.014999358914792538 
-0.0 100.0 1:0.22815194725990295 2:0.8841367363929749 
-0.0 100.0 1:0.36027324199676514 2:1.7820848226547241 
-0.0 100.0 1:0.47067755460739136 2:0.6734393835067749 
-100.0 0.0 1:-0.6797770857810974 2:0.9463186264038086 
-0.0 100.0 1:1.9162147045135498 2:0.13215866684913635 
-100.0 0.0 1:0.22041501104831696 2:0.5546696186065674 
-0.0 100.0 1:-0.10108544677495956 2:1.2488517761230469 
-0.0 100.0 1:0.7590478658676147 2:0.45005810260772705 
-0.0 100.0 1:0.20388436317443848 2:1.1841089725494385 
-0.0 100.0 1:0.40432682633399963 2:0.7476094365119934 
-0.0 100.0 1:0.3661794364452362 2:1.3031257390975952 
-0.0 100.0 1:0.6930039525032043 2:0.4442998766899109 
-0.0 11.258822201642397 1:-0.48820698261260986 2:1.3976731300354004 
-100.0 0.0 1:-0.5928955078125 2:1.2428706884384155 
-100.0 0.0 1:0.834841787815094 2:-0.057691529393196106 
-0.0 100.0 1:0.3103178143501282 2:0.8755268454551697 
-0.0 100.0 1:1.4778984785079956 2:0.09986282140016556 
-0.0 100.0 1:1.2584303617477417 2:0.3958057165145874 
-100.0 0.0 1:-0.03654583916068077 2:0.6741526126861572 
-0.0 100.0 1:1.3927240371704102 2:0.1857147514820099 
-100.0 0.0 1:-0.43586310744285583 2:1.11100172996521 
-0.0 100.0 1:1.3783806562423706 2:0.2516879439353943 
-100.0 0.0 1:-0.27094629406929016 2:0.938302218914032 
-100.0 0.0 1:0.9901366233825684 2:-0.2679336667060852 
-100.0 0.0 1:0.13839636743068695 2:0.6002309322357178 
-0.0 100.0 1:1.2623745203018188 2:0.09712475538253784 
-100.0 0.0 1:-0.06386981159448624 2:0.7204184532165527 
-0.0 100.0 1:0.42953091859817505 2:0.6603504419326782 
-100.0 0.0 1:0.7104933857917786 2:0.10237890481948853 
-0.0 100.0 1:0.12267730385065079 2:0.9624648690223694 
-100.0 0.0 1:0.837646484375 2:-0.35615283250808716 
-0.0 100.0 1:0.2851971387863159 2:0.9358770847320557 
-0.0 100.0 1:1.1555662155151367 2:0.39966028928756714 
-0.0 100.0 1:0.38620516657829285 2:0.8656652569770813 
-0.0 100.0 1:0.19383007287979126 2:1.1440054178237915 
-0.0 100.0 1:-0.15223394334316254 2:1.669335961341858 
-0.0 100.0 1:0.17754174768924713 2:1.3395395278930664 
-0.0 100.0 1:1.3668389320373535 2:0.3970195949077606 
-16.961839606350797 0.0 1:-0.11190270632505417 2:0.8609579801559448 
-100.0 0.0 1:0.7769219875335693 2:-0.6624040603637695 
-100.0 0.0 1:-0.1830296665430069 2:0.8203703761100769 
-0.0 100.0 1:1.3197370767593384 2:0.1382904350757599 
-0.0 100.0 1:0.2795616388320923 2:1.650846004486084 
-100.0 0.0 1:0.7048335075378418 2:0.015519806183874607 
-100.0 0.0 1:1.1306602954864502 2:-0.5347710251808167 
-0.0 100.0 1:1.324147343635559 2:0.20689928531646729 
-0.0 100.0 1:0.13053524494171143 2:1.0386879444122314 
-100.0 0.0 1:1.0796058177947998 2:-0.3232592046260834 
-0.0 100.0 1:0.38099613785743713 2:0.7553175091743469 
-0.0 100.0 1:0.44752106070518494 2:0.6578853726387024 
-0.0 100.0 1:0.8788731694221497 2:0.30931684374809265 
-100.0 0.0 1:-0.09785851836204529 2:0.5687978863716125 
-77.01506612064871 0.0 1:0.9596149921417236 2:-0.09125885367393494 
-0.0 96.00862573734675 1:0.6603757739067078 2:0.4637940526008606 
-0.0 100.0 1:-0.39966070652008057 2:1.3657768964767456 
-0.0 100.0 1:1.2850024700164795 2:0.36571356654167175 
-100.0 0.0 1:-0.10485705733299255 2:0.7381076812744141 
-0.0 100.0 1:1.7943525314331055 2:0.06763098388910294 
-0.0 100.0 1:0.3086766004562378 2:0.9050925374031067 
-0.0 100.0 1:0.7151194214820862 2:0.452333927154541 
-0.0 100.0 1:0.10088849067687988 2:1.0783737897872925 
-100.0 0.0 1:0.8322000503540039 2:-0.14932195842266083 
-0.0 100.0 1:0.3393864631652832 2:1.0005853176116943 
-0.0 -100.0 1:0.7063577175140381 2:0.7584530115127563 
-0.0 -100.0 1:0.6639226078987122 2:0.8725969195365906 
-0.0 -100.0 1:0.8221425414085388 2:0.6278068423271179 
-0.0 -100.0 1:0.6958434581756592 2:0.818290114402771 
-0.0 -100.0 1:0.7041411399841309 2:0.7392085790634155 
-0.0 -100.0 1:0.4151490330696106 2:0.9068869352340698 
-0.0 -100.0 1:0.6946384310722351 2:0.7287184596061707 
-0.0 -7.26744793898895 1:0.8555344939231873 2:0.7416625022888184 
-0.0 -100.0 1:0.6229338645935059 2:0.890150249004364 
-0.0 -100.0 1:0.44678303599357605 2:0.7432937622070312 
-0.0 -100.0 1:0.8302200436592102 2:0.633972704410553 
-0.0 -100.0 1:0.7521806359291077 2:0.7162415981292725 
-0.0 -100.0 1:0.7329331040382385 2:0.7195996046066284 
-0.0 -100.0 1:0.6880457997322083 2:0.6639698147773743 
-0.0 -100.0 1:0.4345444440841675 2:0.9184091091156006 
-0.0 -100.0 1:0.47613024711608887 2:0.7706863880157471 
-67.34849414888237 -100.0 1:0.550727903842926 2:0.5858801603317261 
-0.0 -100.0 1:0.7655844688415527 2:0.5867666006088257 
-0.0 -100.0 1:0.7114349007606506 2:0.6846278309822083 
-50.46194945424147 -100.0 1:0.4005291163921356 2:0.6433641314506531 
-0.0 -100.0 1:0.4202871322631836 2:0.6939743161201477 
-0.0 -100.0 1:0.7133408784866333 2:0.741378903388977 
-0.0 -100.0 1:0.7284440994262695 2:0.8351119756698608 
-0.0 -100.0 1:0.5532346367835999 2:0.6490553617477417 
-0.0 -100.0 1:0.6242817640304565 2:0.8478661179542542 
-0.0 -100.0 1:0.6450530886650085 2:0.6781378388404846 
-0.0 -100.0 1:0.7377429008483887 2:0.7743666172027588 
-0.0 -100.0 1:0.8724388480186462 2:0.5825034976005554 
-0.0 -100.0 1:0.5341202616691589 2:0.8706709146499634 
-0.0 -100.0 1:0.43588605523109436 2:0.8217849135398865 
-0.0 -100.0 1:0.6440470218658447 2:0.8844001889228821 
-0.0 -100.0 1:0.6641613245010376 2:0.644386351108551 
-0.0 -100.0 1:0.9157997369766235 2:0.6229405403137207 
-0.0 -100.0 1:0.5735059976577759 2:0.7958000898361206 
-0.0 -100.0 1:0.7110008001327515 2:0.5901932120323181 
-0.0 -100.0 1:0.6716862916946411 2:0.7921016216278076 
-0.0 -100.0 1:0.5663350224494934 2:0.7494856119155884 
-0.0 -100.0 1:0.5039134621620178 2:0.9020820260047913 
-0.0 -100.0 1:0.5070763230323792 2:0.8322558403015137 
-0.0 -100.0 1:0.6319841146469116 2:0.6536451578140259 
-0.0 -100.0 1:0.8099609017372131 2:0.6505056023597717 
-0.0 -100.0 1:0.640131950378418 2:0.8158711194992065 
-0.0 -100.0 1:0.6912412047386169 2:0.614540696144104 
-0.0 -100.0 1:0.7733935713768005 2:0.6570385694503784 
-0.0 -100.0 1:0.44505876302719116 2:0.7659800052642822 
-0.0 -100.0 1:0.8605693578720093 2:0.721810519695282 
