svm_type c_svc
kernel_type linear
nr_class 2
total_sv 7
rho 1.0
label 1 0
nr_sv 4 3
SV
2.0 1:0.0 2:1.0 
100.0 1:0.0 2:0.0 
100.0 1:0.0 2:0.0 
2.0 1:1.0 2:0.0 
-4.0 1:0.0 2:0.0 
-100.0 1:0.0 2:0.0 
-100.0 1:0.0 2:0.0 
