svm_type c_svc
kernel_type linear
nr_class 6
total_sv 151
rho -0.375340632544905 0.05415635246129996 -0.18557497464398923 -0.5205981584362234 -0.3266579409213826 0.18477715753536572 -0.025032940526917097 -0.01795093934882582 -0.5903650320455025 -0.1640707945294506 -0.13218194202999284 -0.09668275449081021 -0.1398251654822517 -0.055980952071542 -0.509276354516064
label 1 2 3 5 6 4
nr_sv 26 29 22 20 31 23
SV
0.215841481014325 0.19822070291880522 0.2721722285199104 0.1845845185587981 0.14088627121890304 1:0.5600044131278992 2:0.0313456654548645 3:0.09389093518257141 4:0.05657070130109787 5:0.1919688880443573 6:0.05477801337838173 7:0.07325269281864166 8:0.02089710906147957 9:0.20189541578292847 10:0.09812744706869125 11:0.058642007410526276 12:0.0726906955242157 13:0.0670192539691925 14:0.09812744706869125 15:0.07583688199520111 16:0.07986093312501907 17:0.02089710906147957 18:0.014776486903429031 19:0.4089790880680084 20:0.02089710906147957 21:0.07995329052209854 22:0.04179421812295914 23:0.11214565485715866 24:0.06971625983715057 25:0.11299451440572739 26:0.0313456654548645 27:0.4982650578022003 28:0.18460266292095184 29:0.04179421812295914 30:0.13272689282894135 31:0.0739826038479805 32:0.09345471113920212 33:0.1010003462433815 34:0.07334505021572113 35:0.05459268391132355 36:0.014776486903429031 37:0.01827993616461754 38:0.026624567806720734 39:0.014148404821753502 40:0.010693391785025597 41:0.028194312006235123 42:0.013886906206607819 43:0.020000068470835686 44:0.017505355179309845 45:0.0066260118037462234 46:0.018337469547986984 47:0.0020336902234703302 48:0.01940266229212284 49:0.012202140875160694 50:0.045625243335962296 51:0.007817319594323635 52:0.02512696571648121 53:0.017187591642141342 54:0.014814411289989948 55:0.0339960902929306 56:0.004547469783574343 57:0.16471870243549347 58:0.15747521817684174 59:0.2264915555715561 60:0.21671977639198303 61:0.008424101397395134 62:0.02657758817076683 63:0.0066260118037462234 64:0.05668627843260765 65:0.46983981132507324 66:0.5360196232795715 67:0.1689821481704712 68:0.5007786750793457 69:0.020818371325731277 70:0.10203898698091507 71:0.19247642159461975 72:0.045262664556503296 73:0.03436630219221115 74:0.03670300170779228 75:0.009432592429220676 76:0.11601896584033966 77:0.08187351375818253 78:0.0407436341047287 79:0.022519158199429512 80:0.03812415897846222 81:0.012148103676736355 82:0.05474427714943886 83:0.08031553775072098 84:0.09531688690185547 85:0.10818919539451599 86:0.0987333282828331 87:0.0460137240588665 88:0.002358148107305169 89:0.017197798937559128 90:0.01902322843670845 91:0.08923932909965515 92:0.22089532017707825 93:0.0547570064663887 94:0.21548545360565186 95:0.4160761535167694 96:0.21304379403591156 97:0.389981746673584 98:0.35413360595703125 99:0.5570828318595886 100:0.0746471956372261 101:0.019481360912322998 102:0.05737669765949249 103:0.03708720579743385 104:0.0383516363799572 105:0.05033840239048004 106:0.04056087136268616 107:0.04335737228393555 108:0.0 109:0.09154820442199707 110:0.01036685798317194 111:0.011143514886498451 112:0.0038670094218105078 113:0.020057303830981255 114:0.01527841854840517 115:0.011700193397700787 116:0.004805303178727627 117:0.04872586205601692 118:0.2665613889694214 119:0.4378763735294342 120:0.22724084556102753 121:0.06590621173381805 122:0.14507520198822021 123:0.00521875498816371 124:0.022387338802218437 125:0.013166741468012333 126:0.15075795352458954 127:0.09043604135513306 128:0.016395801678299904 129:0.008204685524106026 130:0.00455528125166893 131:0.011461316607892513 132:0.0016017676098272204 133:0.0250676441937685 134:0.016730519011616707 135:0.05753805488348007 136:0.5129162669181824 137:0.023717017844319344 138:0.06558620184659958 139:0.008672312833368778 140:0.04589296504855156 141:0.1347685605287552 142:0.005065233912318945 143:0.18800579011440277 144:0.5370305776596069 145:0.12755262851715088 146:0.0667453408241272 147:0.2563091814517975 148:0.17004843056201935 149:0.09555737674236298 150:0.05226406082510948 151:0.1753588169813156 152:0.029460059478878975 153:0.04279012233018875 154:0.17250847816467285 155:0.1869458258152008 156:0.014055113308131695 157:0.01866665668785572 158:0.01168579701334238 159:0.11991347372531891 160:0.15285374224185944 161:0.14311373233795166 162:0.1885867714881897 163:0.023488396778702736 164:0.05216678977012634 165:0.05871883034706116 166:0.16268406808376312 167:0.10525769740343094 168:0.18066127598285675 169:0.14576813578605652 170:0.28355711698532104 171:0.056149303913116455 172:0.0 173:0.08648280799388885 174:0.46594375371932983 175:0.46262189745903015 176:0.22497940063476562 177:0.09600818157196045 178:0.00508876983076334 179:0.0 180:0.0 181:0.31915050745010376 182:0.4086545407772064 183:0.177267923951149 184:0.09609638154506683 185:0.10830139368772507 186:0.0889640748500824 187:0.1162998303771019 188:0.08595484495162964 189:0.07041311264038086 190:0.046103302389383316 191:0.018188323825597763 192:0.02774703875184059 193:0.006274006795138121 194:0.010154042392969131 195:0.011392945423722267 196:0.008160696364939213 197:0.02224895730614662 198:0.013962903991341591 199:0.0893639326095581 200:0.4513190686702728 201:0.5878252983093262 202:0.28621482849121094 203:0.012423913925886154 204:0.01994202844798565 205:6.502802134491503E-4 206:0.009310595691204071 207:0.0 208:0.012931497767567635 209:0.00887162983417511 210:0.009447070769965649 211:0.01507978979498148 212:0.008276715874671936 213:0.012001301161944866 214:0.010459786280989647 215:0.004742445424199104 216:0.006075179670006037 217:0.09119122475385666 218:0.0069483681581914425 219:0.012385807931423187 220:0.010901703499257565 221:0.0074106911197304726 222:0.00753218587487936 223:0.011433053761720657 224:0.0069483681581914425 225:0.056932251900434494 226:0.20480358600616455 227:0.008808253332972527 228:0.009527544490993023 229:0.003012874396517873 230:0.009487546049058437 231:0.008156172931194305 232:0.019173722714185715 233:0.3262134790420532 234:0.2846919298171997 235:0.10349259525537491 236:0.022675970569252968 237:0.00719282915815711 238:0.009460953995585442 239:0.0148771395906806 240:0.013087651692330837 241:0.007689746096730232 242:0.0069483681581914425 243:0.11700073629617691 244:0.8278638124465942 245:0.021736515685915947 246:0.008145583793520927 247:0.01453856285661459 248:0.0074106911197304726 249:0.0036368612200021744 250:0.027164841070771217 251:0.003935494460165501 252:0.21268606185913086 253:0.00809453520923853 254:0.044130079448223114 255:0.2140396684408188 256:0.46509817242622375 257:0.21049167215824127 258:0.047710999846458435 259:0.12437495589256287 260:0.05921843647956848 261:0.019988102838397026 262:0.02510850317776203 263:0.13133852183818817 264:0.4713694751262665 265:0.16642016172409058 266:0.15704354643821716 267:0.04671233892440796 268:0.011505777947604656 269:0.007264390122145414 270:0.0 271:0.17844046652317047 272:0.09763824939727783 273:0.0 274:0.04441540315747261 275:0.037537287920713425 276:0.1662943959236145 277:0.19982698559761047 278:0.14048315584659576 279:0.18937094509601593 280:0.3980579674243927 281:0.029064161702990532 282:0.042977869510650635 283:0.0 284:0.001190244103781879 285:0.022093674167990685 286:0.04366493225097656 287:0.08052507787942886 288:0.19272838532924652 289:0.0021970190573483706 290:0.17109499871730804 291:0.7828735709190369 292:0.10413777828216553 293:0.12335167825222015 294:0.09890779852867126 295:0.006214108318090439 296:0.028805838897824287 297:0.0 298:0.044567376375198364 299:0.004912684205919504 300:0.007921464741230011 301:0.04331250861287117 302:0.17938128113746643 303:0.31541675329208374 304:0.0754159688949585 305:0.04862276837229729 306:0.0069475844502449036 307:0.05001940578222275 308:0.03478090465068817 309:0.15792228281497955 310:0.13537012040615082 311:0.1149960607290268 312:0.09725414216518402 313:0.0772310420870781 314:0.012834149412810802 315:0.0069475844502449036 316:0.019773172214627266 317:0.009825368411839008 318:0.03925624489784241 319:0.07540082186460495 320:0.16806882619857788 321:0.22522151470184326 322:0.11772531270980835 323:0.031227054074406624 324:0.0069475844502449036 
0.0 0.006202152451102436 0.0 0.0 0.0 1:0.263560026884079 2:0.19540663063526154 3:0.14171184599399567 4:0.19940920174121857 5:0.16091467440128326 6:0.22128653526306152 7:0.09752901643514633 8:0.15128126740455627 9:0.07066548615694046 10:0.09961384534835815 11:0.07903021574020386 12:0.16362139582633972 13:0.19732053577899933 14:0.19156509637832642 15:0.07563358545303345 16:0.1468300223350525 17:0.017134102061390877 18:0.0 19:0.40055808424949646 20:0.252175509929657 21:0.1733849197626114 22:0.017134102061390877 23:0.23051229119300842 24:0.1530153900384903 25:0.1481640785932541 26:0.12783704698085785 27:0.21076250076293945 28:0.0939534604549408 29:0.10684942454099655 30:0.15766659379005432 31:0.13413307070732117 32:0.18390248715877533 33:0.1851055771112442 34:0.12622995674610138 35:0.08971532434225082 36:0.0726938471198082 37:0.16434818506240845 38:0.09070639312267303 39:0.1968502700328827 40:0.04282575100660324 41:0.25855547189712524 42:0.1818995624780655 43:0.18959766626358032 44:0.04282575100660324 45:0.039483390748500824 46:0.15477204322814941 47:0.1332930624485016 48:0.1760549694299698 49:0.08230914175510406 50:0.2777077257633209 51:0.1159338727593422 52:0.11578336358070374 53:0.1070643737912178 54:0.03028237819671631 55:0.1723703145980835 56:0.18149587512016296 57:0.12303594499826431 58:0.1428738832473755 59:0.18194644153118134 60:0.12480338662862778 61:0.2990909218788147 62:0.04282575100660324 63:0.03028237819671631 64:0.13406580686569214 65:0.05594009906053543 66:0.12188420444726944 67:0.310297429561615 68:0.19231513142585754 69:0.3774023950099945 70:0.1083415225148201 71:0.16300447285175323 72:0.0 73:0.10257238894701004 74:0.05240828916430473 75:0.17975348234176636 76:0.1200735792517662 77:0.18830883502960205 78:0.2258552461862564 79:0.10242649912834167 80:0.08097526431083679 81:0.0 82:0.2596282660961151 83:0.06842252612113953 84:0.22722359001636505 85:0.39113813638687134 86:0.13036766648292542 87:0.11790566891431808 88:0.07256963104009628 89:0.08479839563369751 90:0.02986220084130764 91:0.20500235259532928 92:0.05850384384393692 93:0.13855943083763123 94:0.32060688734054565 95:0.21055150032043457 96:0.17979799211025238 97:0.10321725904941559 98:0.032390106469392776 99:0.022903263568878174 100:0.20486107468605042 101:0.06257063150405884 102:0.08756963908672333 103:0.10387852042913437 104:0.32711800932884216 105:0.1700604110956192 106:0.17180922627449036 107:0.16889965534210205 108:0.02986220084130764 109:0.3869475722312927 110:0.009869648143649101 111:0.04993690922856331 112:0.047654878348112106 113:0.05737993121147156 114:0.05752452462911606 115:0.09416254609823227 116:0.039478592574596405 117:0.24407172203063965 118:0.09367109090089798 119:0.05921788886189461 120:0.04993690922856331 121:0.10124406963586807 122:0.10151834040880203 123:0.15151309967041016 124:0.10732797533273697 125:0.11513099074363708 126:0.0783374235033989 127:0.7363632917404175 128:0.0 129:0.06866324692964554 130:0.08968104422092438 131:0.0485522486269474 132:0.09869648516178131 133:0.02215644344687462 134:0.035606540739536285 135:0.2079547792673111 136:0.15682563185691833 137:0.035653624683618546 138:0.06242113187909126 139:0.043566733598709106 140:0.08386297523975372 141:0.10942035913467407 142:0.07490535080432892 143:0.09332937002182007 144:0.05035525560379028 145:0.09870004653930664 146:0.08266116678714752 147:0.10730006545782089 148:0.05548185110092163 149:0.11369497328996658 150:0.10183373838663101 151:0.044210709631443024 152:0.004484632983803749 153:0.07031088322401047 154:0.04367486760020256 155:0.12725791335105896 156:0.2676583230495453 157:0.1625414490699768 158:0.16408665478229523 159:0.10318844020366669 160:0.07026923447847366 161:0.02312692254781723 162:0.030850766226649284 163:0.19949668645858765 164:0.10231733322143555 165:0.015361265279352665 166:0.04541759192943573 167:0.05811356380581856 168:0.06604193896055222 169:0.1530296355485916 170:0.10594835877418518 171:0.08040003478527069 172:0.026548802852630615 173:0.15714584290981293 174:0.7472353577613831 175:0.28331321477890015 176:0.10985112935304642 177:0.022310752421617508 178:0.021267779171466827 179:0.0 180:0.0017168103950098157 181:0.4590146243572235 182:0.06932158768177032 183:0.310322105884552 184:0.11150851100683212 185:0.2392609566450119 186:0.03968426585197449 187:0.13963553309440613 188:0.0738714262843132 189:0.18025778234004974 190:0.018716000020503998 191:0.005526375025510788 192:0.0313049778342247 193:0.017608681693673134 194:0.027422746643424034 195:0.016293974593281746 196:0.005369365215301514 197:0.005526375025510788 198:0.0 199:0.08682103455066681 200:0.5407814383506775 201:0.4990777373313904 202:0.002163482131436467 203:0.008893989957869053 204:0.04005051776766777 205:0.0019350771326571703 206:0.02061966061592102 207:0.045113928616046906 208:0.02003568597137928 209:0.035410426557064056 210:0.03529689460992813 211:0.019147511571645737 212:0.012314755469560623 213:0.008043942973017693 214:0.005805231165140867 215:0.0 216:0.004326964262872934 217:0.26341429352760315 218:0.018440525978803635 219:0.03240756317973137 220:0.026111578568816185 221:0.02677515335381031 222:0.003521827282384038 223:0.008909596130251884 224:0.010565482079982758 225:0.15606902539730072 226:0.02677515335381031 227:0.012722429819405079 228:0.037082917988300323 229:0.02853395603597164 230:0.02677515335381031 231:0.034593261778354645 232:0.024501388892531395 233:0.010565482079982758 234:0.030171506106853485 235:0.32341840863227844 236:0.021130962297320366 237:0.018039748072624207 238:0.020526712760329247 239:0.03307518735527992 240:0.015546097420156002 241:0.03463496267795563 242:0.023287910968065262 243:0.10597787797451019 244:0.763963520526886 245:0.4314417839050293 246:0.022494545206427574 247:0.025561854243278503 248:0.014175080694258213 249:0.007043654564768076 250:0.020046591758728027 251:0.03556482493877411 252:0.06081423908472061 253:0.21966367959976196 254:0.1661721169948578 255:0.0479731522500515 256:0.0 257:0.01992945931851864 258:0.048111651092767715 259:0.03909163549542427 260:0.02624337188899517 261:0.2100578099489212 262:0.4161486327648163 263:0.3146468997001648 264:0.2742477357387543 265:0.07073785364627838 266:0.010133778676390648 267:0.002049063565209508 268:0.007207447197288275 269:0.017629502341151237 270:0.05161568894982338 271:0.2957044243812561 272:0.13954782485961914 273:0.014666528441011906 274:0.01025694515556097 275:0.0032398540060967207 276:0.0 277:0.002938893623650074 278:0.015023178420960903 279:0.09596548229455948 280:0.5961459875106812 281:0.0983448401093483 282:0.03254464268684387 283:0.00828492734581232 284:9.163691429421306E-4 285:0.0 286:0.011425255797803402 287:0.0 288:0.18503527343273163 289:0.21417628228664398 290:0.41718170046806335 291:0.2852920591831207 292:0.209549680352211 293:0.05273565277457237 294:0.011792050674557686 295:0.08267167210578918 296:0.02358410134911537 297:0.07586979866027832 298:0.25783467292785645 299:0.16595451533794403 300:0.14233525097370148 301:0.15089811384677887 302:0.04218852147459984 303:0.02358410134911537 304:0.07121974229812622 305:0.07075230032205582 306:0.05509641766548157 307:0.11869481950998306 308:0.34509310126304626 309:0.3786771297454834 310:0.14227314293384552 311:0.08437704294919968 312:0.07868052273988724 313:0.02237384207546711 314:0.02358410134911537 315:0.06443063914775848 316:0.10599349439144135 317:0.13773086667060852 318:0.2286505252122879 319:0.22246630489826202 320:0.11631051450967789 321:0.09040306508541107 322:0.10924796015024185 323:0.061612319201231 324:0.0384199433028698 
0.10311985033060726 0.020298698027068126 0.10938584206972687 0.0 0.004692702320654088 1:0.4234143793582916 2:0.17443837225437164 3:0.08622411638498306 4:0.15034954249858856 5:0.16004537045955658 6:0.06816615909337997 7:0.04311206191778183 8:0.09564480930566788 9:0.024100376293063164 10:0.13841849565505981 11:0.03408307954668999 12:0.1293361634016037 13:0.1716264933347702 14:0.1143181174993515 15:0.08960650116205215 16:0.1401142030954361 17:0.04452019929885864 18:0.0 19:0.45625773072242737 20:0.11268635839223862 21:0.053890079259872437 22:0.1862863451242447 23:0.152424156665802 24:0.18399061262607574 25:0.13510817289352417 26:0.06156173720955849 27:0.21606352925300598 28:0.1841457486152649 29:0.11010488122701645 30:0.11370277404785156 31:0.10930807143449783 32:0.28198468685150146 33:0.12368958443403244 34:0.18546970188617706 35:0.1573968231678009 36:0.0 37:0.19920755922794342 38:0.049493514001369476 39:0.19641518592834473 40:0.08449071645736694 41:0.22134172916412354 42:0.059743959456682205 43:0.11815906316041946 44:0.07424027472734451 45:0.0 46:0.32453736662864685 47:0.049493514001369476 48:0.1721634417772293 49:0.07037752866744995 50:0.2877442538738251 51:0.059743959456682205 52:0.10955855995416641 53:0.049493514001369476 54:0.03499719873070717 55:0.18993639945983887 56:0.0399029478430748 57:0.125209778547287 58:0.03499719873070717 59:0.1770733892917633 60:0.15448512136936188 61:0.29892298579216003 62:0.11414321511983871 63:0.1049916073679924 64:0.14387212693691254 65:0.09898702800273895 66:0.031302448362112045 67:0.21847493946552277 68:0.37628093361854553 69:0.27821892499923706 70:0.09390734136104584 71:0.22828643023967743 72:0.11562515795230865 73:0.1399838775396347 74:0.17019999027252197 75:0.11312404274940491 76:0.06707431375980377 77:0.14998272061347961 78:0.044716209173202515 79:0.2057374268770218 80:0.11179052293300629 81:0.0 82:0.3111952245235443 83:0.19255809485912323 84:0.20747819542884827 85:0.14883463084697723 86:0.08998963236808777 87:0.11756164580583572 88:0.2276482731103897 89:0.08943241834640503 90:0.03161913529038429 91:0.1299850195646286 92:0.11179052293300629 93:0.19299712777137756 94:0.20400115847587585 95:0.2599700391292572 96:0.2614683210849762 97:0.09898354113101959 98:0.17581439018249512 99:0.0 100:0.18322443962097168 101:0.058409467339515686 102:0.14917539060115814 103:0.27023234963417053 104:0.2799677550792694 105:0.05397724360227585 106:0.19159691035747528 107:0.18378658592700958 108:0.06323827058076859 109:0.4463528096675873 110:0.018101925030350685 111:0.06038888171315193 112:0.039952877908945084 113:0.07690655440092087 114:0.07099492102861404 115:0.03434598445892334 116:0.06335673481225967 117:0.0898129940032959 118:0.08970654010772705 119:0.08700193464756012 120:0.05724330618977547 121:0.13533620536327362 122:0.05262027308344841 123:0.03479107469320297 124:0.028621654957532883 125:0.08349425345659256 126:0.058978285640478134 127:0.7588797211647034 128:0.009050962515175343 129:0.03434598445892334 130:0.027152886614203453 131:0.06881112605333328 132:0.03989952802658081 133:0.10090112686157227 134:0.09050963073968887 135:0.2368742972612381 136:0.14737112820148468 137:0.03823943808674812 138:0.08320619910955429 139:0.08754394948482513 140:0.044524844735860825 141:0.11971066147089005 142:0.05151897296309471 143:0.030848566442728043 144:0.046178292483091354 145:0.12053775042295456 146:0.094782754778862 147:0.08366748690605164 148:0.10490843653678894 149:0.1217978298664093 150:0.03383704647421837 151:0.05250570550560951 152:0.038965482264757156 153:0.007194680627435446 154:0.0932406559586525 155:0.13686634600162506 156:0.12452006340026855 157:0.18112961947917938 158:0.15814819931983948 159:0.17934632301330566 160:0.029948260635137558 161:0.019493257626891136 162:0.05900125205516815 163:0.2064933478832245 164:0.08199018985033035 165:0.05460255593061447 166:0.057341624051332474 167:0.07955202460289001 168:0.07213831692934036 169:0.1970534324645996 170:0.07639949023723602 171:0.13109828531742096 172:0.011024489998817444 173:0.08711961656808853 174:0.7195943593978882 175:0.3580622375011444 176:0.1309117078781128 177:0.012637685053050518 178:0.020667605102062225 179:0.004769923631101847 180:0.0 181:0.2296116203069687 182:0.20398196578025818 183:0.09503002464771271 184:0.10388587415218353 185:0.23466883599758148 186:0.02461158111691475 187:0.0811413899064064 188:0.10691052675247192 189:0.28004521131515503 190:0.008663564920425415 191:0.016851894557476044 192:0.014566462486982346 193:0.024308709427714348 194:0.02040456235408783 195:0.009853100404143333 196:0.009820030070841312 197:0.005316827911883593 198:0.0 199:0.13446809351444244 200:0.21824030578136444 201:0.807691752910614 202:0.06245953217148781 203:0.0013164234114810824 204:0.00885815266519785 205:0.025793833658099174 206:0.006612604018300772 207:0.0790644958615303 208:0.017301347106695175 209:0.03076256811618805 210:0.01682148687541485 211:0.032186802476644516 212:0.014480656944215298 213:0.0071065085940063 214:0.0037234073970466852 215:0.0029436121694743633 216:0.008166641928255558 217:0.14855602383613586 218:0.017184065654873848 219:0.031926229596138 220:0.007451164070516825 221:0.028324224054813385 222:0.020171096548438072 223:0.027213703840970993 224:0.0037255820352584124 225:0.3500930666923523 226:0.048753149807453156 227:0.03296588361263275 228:0.030864758417010307 229:0.02543986402451992 230:0.02165970206260681 231:0.030766312032938004 232:0.025147510692477226 233:0.03666500374674797 234:0.0 235:0.33216267824172974 236:0.007451164070516825 237:0.030864758417010307 238:0.026079071685671806 239:0.028324224054813385 240:0.01117674633860588 241:0.004712529480457306 242:0.02089187502861023 243:0.09223408252000809 244:0.5738663077354431 245:0.6026840209960938 246:0.019083434715867043 247:0.043786726891994476 248:0.01332904677838087 249:0.0143207972869277 250:0.039285097271203995 251:0.03817109763622284 252:0.15312696993350983 253:0.23506204783916473 254:0.10847882181406021 255:0.010559720918536186 256:0.026969265192747116 257:0.028387630358338356 258:0.009860065765678883 259:0.05120878294110298 260:0.02560490183532238 261:0.2154209464788437 262:0.34835973381996155 263:0.33879223465919495 264:0.33183974027633667 265:0.02387465350329876 266:0.02773122861981392 267:0.0 268:0.003950444981455803 269:0.0 270:0.038708679378032684 271:0.22140395641326904 272:0.14461691677570343 273:0.022834118455648422 274:0.004453710746020079 275:0.0 276:0.0026974426582455635 277:0.009071378037333488 278:0.016472814604640007 279:0.12217308580875397 280:0.652909517288208 281:0.07974330335855484 282:0.017261596396565437 283:0.002861069981008768 284:0.003873826703056693 285:0.0013487213291227818 286:0.008148330263793468 287:0.0 288:0.11681351810693741 289:0.3252156972885132 290:0.2603002190589905 291:0.3142787516117096 292:0.1699019968509674 293:0.023983733728528023 294:0.07515538483858109 295:0.0 296:0.061776623129844666 297:0.1120871976017952 298:0.2871771454811096 299:0.24548111855983734 300:0.24208639562129974 301:0.07605079561471939 302:0.05995933338999748 303:0.04368267208337784 304:0.05935670807957649 305:0.09167056530714035 306:0.16171184182167053 307:0.21304506063461304 308:0.41070884466171265 309:0.26424118876457214 310:0.07814355194568634 311:0.1319105327129364 312:0.038129180669784546 313:0.12047841399908066 314:0.013407314196228981 315:0.0 316:0.1336216777563095 317:0.11848518997430801 318:0.17043021321296692 319:0.0647362470626831 320:0.13790646195411682 321:0.11857307702302933 322:0.033918119966983795 323:0.026814628392457962 324:0.04368267208337784 
0.3526109125293898 0.0 0.0566417035854238 0.34206334731599874 0.2550849686298684 1:0.4409930109977722 2:0.08585195243358612 3:0.06488819420337677 4:0.06371789425611496 5:0.049124207347631454 6:0.018674448132514954 7:0.017296453937888145 8:0.09934353083372116 9:0.4411904513835907 10:0.09186992794275284 11:0.04181188344955444 12:0.08407662808895111 13:0.16197676956653595 14:0.17415858805179596 15:0.029613686725497246 16:0.050330981612205505 17:0.04080867022275925 18:0.0178206879645586 19:0.4259756803512573 20:0.03069797344505787 21:0.06952834874391556 22:0.03508330136537552 23:0.022014791145920753 24:0.018674448132514954 25:0.05556737259030342 26:0.010939237661659718 27:0.5295958518981934 28:0.06674244999885559 29:0.06730212271213531 30:0.053790271282196045 31:0.08924996107816696 32:0.026906967163085938 33:0.05982234328985214 34:0.015738077461719513 35:0.07288012653589249 36:0.02017095685005188 37:0.14419499039649963 38:0.07552186399698257 39:0.05221781134605408 40:0.17371386289596558 41:0.5180041193962097 42:0.05960232764482498 43:0.036244235932826996 44:0.08554982393980026 45:0.06761236488819122 46:0.048640716820955276 47:0.0 48:0.10377181321382523 49:0.22730004787445068 50:0.6563878059387207 51:0.04661991074681282 52:0.09940259158611298 53:0.14933349192142487 54:0.03825118765234947 55:0.16579976677894592 56:0.08560217916965485 57:0.03106648474931717 58:0.00818673800677061 59:0.05857953056693077 60:0.06549390405416489 61:0.09888989478349686 62:0.08366955071687698 63:0.026673395186662674 64:0.11975470930337906 65:0.00818673800677061 66:0.06782341748476028 67:0.027951272204518318 68:0.10251417756080627 69:0.03134233132004738 70:0.07533368468284607 71:0.13801349699497223 72:0.0835932195186615 73:0.10032142698764801 74:0.08382243663072586 75:0.04447666183114052 76:0.05840684846043587 77:0.5977908968925476 78:0.0530620738863945 79:0.030685869976878166 80:0.028031131252646446 81:0.0 82:0.07984894514083862 83:0.017313972115516663 84:0.04144538938999176 85:0.02520143985748291 86:0.732335090637207 87:0.014378578402101994 88:0.0867091715335846 89:0.04055224359035492 90:0.06824660301208496 91:0.08865302056074142 92:0.06444016844034195 93:0.09490049630403519 94:0.06893273442983627 95:0.023577749729156494 96:0.016363846138119698 97:0.03364412486553192 98:0.03274761140346527 99:0.049506355077028275 100:0.1129264310002327 101:0.06250627338886261 102:0.01682206429541111 103:0.01842331513762474 104:0.034447237849235535 105:0.021156704053282738 106:0.051789384335279465 107:0.042409710586071014 108:0.04009007662534714 109:0.6405414938926697 110:0.038279689848423004 111:0.0695912316441536 112:0.03933998569846153 113:0.02576490305364132 114:0.011522415094077587 115:0.03679787367582321 116:0.03586295619606972 117:0.29770129919052124 118:0.07323306053876877 119:0.07540537416934967 120:0.07682771980762482 121:0.04268085956573486 122:0.03607086464762688 123:0.05909917503595352 124:0.04372448846697807 125:0.03115844540297985 126:0.04321345314383507 127:0.48876458406448364 128:0.07884715497493744 129:0.05532628297805786 130:0.06148554012179375 131:0.03349437192082405 132:0.00814757775515318 133:0.03279336914420128 134:0.0 135:0.42001453042030334 136:0.09423258900642395 137:0.062473081052303314 138:0.08247368782758713 139:0.05324876680970192 140:0.06441225856542587 141:0.03115844540297985 142:0.04408528283238411 143:0.011522415094077587 144:0.035065870732069016 145:0.03255883604288101 146:0.09746891260147095 147:0.10777667909860611 148:0.021569853648543358 149:0.03086491860449314 150:0.013773699291050434 151:0.012236852198839188 152:0.0010657808743417263 153:0.017843985930085182 154:0.06072693690657616 155:0.06645945459604263 156:0.18016913533210754 157:0.05485906824469566 158:0.11679766327142715 159:0.1282210648059845 160:0.11917632073163986 161:0.05439460650086403 162:0.051134176552295685 163:0.1946323812007904 164:0.16026811301708221 165:0.07774527370929718 166:0.11198092252016068 167:0.02453259751200676 168:0.04434620589017868 169:0.0028697026427835226 170:0.2125801146030426 171:0.18622411787509918 172:0.020307250320911407 173:0.3271385729312897 174:0.7612630724906921 175:0.014596639201045036 176:0.16806821525096893 177:0.033538736402988434 178:0.033456917852163315 179:0.0075737955048680305 180:0.0 181:0.1296413689851761 182:0.4375065267086029 183:0.05944007262587547 184:0.01755804382264614 185:0.048608191311359406 186:0.10179991275072098 187:0.24245081841945648 188:0.22049307823181152 189:0.2072618156671524 190:0.05000520497560501 191:0.03469834104180336 192:0.042520131915807724 193:0.011775650084018707 194:0.014262677170336246 195:0.022738294675946236 196:0.01492482889443636 197:0.016229407861828804 198:0.004848377779126167 199:0.46082034707069397 200:0.6255226135253906 201:0.06472200900316238 202:0.021478477865457535 203:0.03634868934750557 204:0.007259145379066467 205:0.01956469751894474 206:0.015361259691417217 207:0.0521390363574028 208:0.046178922057151794 209:0.015384997241199017 210:0.02431892231106758 211:0.00813982728868723 212:0.012420184910297394 213:0.0102988975122571 214:0.017614226788282394 215:0.019893182441592216 216:0.031413957476615906 217:0.5227503776550293 218:0.08719605207443237 219:0.07769247889518738 220:0.047964707016944885 221:0.04196954146027565 222:0.021323977038264275 223:0.007913852110505104 224:0.03033451735973358 225:0.41547125577926636 226:0.08519162237644196 227:0.07412966340780258 228:0.0799221396446228 229:0.08279184252023697 230:0.0167878158390522 231:0.04790472239255905 232:0.02769848145544529 233:0.01876934990286827 234:0.025867341086268425 235:0.5201578736305237 236:0.08945675194263458 237:0.06418974697589874 238:0.06750614941120148 239:0.027979694306850433 240:0.03646526113152504 241:0.04168832674622536 242:0.0 243:0.4176928699016571 244:0.11235079169273376 245:0.0831252709031105 246:0.053614407777786255 247:0.08089876919984818 248:0.044767510145902634 249:0.030208813026547432 250:0.03382977843284607 251:0.02885757014155388 252:0.07217445969581604 253:0.15949051082134247 254:0.12337221205234528 255:0.1168900653719902 256:0.02708013728260994 257:0.18444839119911194 258:0.035064682364463806 259:0.047321904450654984 260:0.04722030833363533 261:0.167266383767128 262:0.23916269838809967 263:0.2428530603647232 264:0.23062197864055634 265:0.007058190181851387 266:0.0016784414183348417 267:7.506218389607966E-4 268:4.7473490121774375E-4 269:0.0 270:0.08240142464637756 271:0.7718765735626221 272:0.0907621905207634 273:0.011011394672095776 274:0.0025627831928431988 275:0.010186539962887764 276:7.506218389607966E-4 277:0.0 278:0.015169434249401093 279:0.1195899248123169 280:0.22195404767990112 281:0.15962401032447815 282:0.020435629412531853 283:0.0072249723598361015 284:0.004363947547972202 285:0.00542763527482748 286:0.0033701525535434484 287:0.016331160441040993 288:0.08189171552658081 289:0.13742591440677643 290:0.2388727217912674 291:0.14078779518604279 292:0.11574192345142365 293:0.2450312376022339 294:0.06067109480500221 295:0.11570777744054794 296:0.06562572717666626 297:0.051481135189533234 298:0.32234829664230347 299:0.13761866092681885 300:0.205480694770813 301:0.07620715349912643 302:0.1302381008863449 303:0.056964874267578125 304:0.05372047424316406 305:0.09980278462171555 306:0.09397049993276596 307:0.19444584846496582 308:0.024268439039587975 309:0.15155340731143951 310:0.3711766004562378 311:0.25078001618385315 312:0.225808784365654 313:0.1386837661266327 314:0.16624996066093445 315:0.051481135189533234 316:0.2066287398338318 317:0.23239882290363312 318:0.15489962697029114 319:0.2581844627857208 320:0.13068723678588867 321:0.12258026748895645 322:0.06906918436288834 323:0.06340011954307556 324:0.05669514834880829 
0.06793491682508965 0.0 0.06094601208804275 0.05610930856970715 0.23061157973628532 1:0.07255839556455612 2:0.12813621759414673 3:0.24134404957294464 4:0.2665887773036957 5:0.2296583503484726 6:0.19091184437274933 7:0.15790218114852905 8:0.20275303721427917 9:0.025042878463864326 10:0.1346273124217987 11:0.053123969584703445 12:0.0559975765645504 13:0.15159280598163605 14:0.11878880113363266 15:0.2487764209508896 16:0.1752559244632721 17:0.04264648258686066 18:0.07512863725423813 19:0.13591241836547852 20:0.12785401940345764 21:0.19654598832130432 22:0.15612491965293884 23:0.23757760226726532 24:0.22435101866722107 25:0.2025437206029892 26:0.08167723566293716 27:0.10778054594993591 28:0.19103698432445526 29:0.07083195447921753 30:0.1517479419708252 31:0.1032097265124321 32:0.12670806050300598 33:0.17574407160282135 34:0.16294744610786438 35:0.23410196602344513 36:0.25396472215652466 37:0.010281289927661419 38:0.003536871401593089 39:0.00894765555858612 40:0.03469667211174965 41:0.013444764539599419 42:0.010334576480090618 43:0.015292230062186718 44:0.011693695560097694 45:0.0 46:0.016024021431803703 47:0.016045762225985527 48:0.02589034102857113 49:0.04013168066740036 50:0.07522683590650558 51:0.052587661892175674 52:0.018469244241714478 53:0.013462130911648273 54:0.008262725546956062 55:0.19063709676265717 56:0.08181869983673096 57:0.38343775272369385 58:0.4868384301662445 59:0.21100129187107086 60:0.05957518890500069 61:0.05381562188267708 62:0.014264346100389957 63:0.26754453778266907 64:0.05007263645529747 65:0.10773040354251862 66:0.09482260793447495 67:0.2199966460466385 68:0.4194951057434082 69:0.17858120799064636 70:0.384744256734848 71:0.09299156069755554 72:0.016130615025758743 73:0.026008162647485733 74:0.00528691103681922 75:0.003343735821545124 76:0.02329433523118496 77:0.03664786368608475 78:0.035369496792554855 79:0.034498244524002075 80:0.00264345551840961 81:0.0 82:0.018116524443030357 83:0.007930366322398186 84:0.025996726006269455 85:0.026663344353437424 86:0.034283485263586044 87:0.0330861359834671 88:0.02189982868731022 89:0.009549354203045368 90:0.014953642152249813 91:0.13057053089141846 92:0.05683460459113121 93:0.001671867910772562 94:0.04213554412126541 95:0.04408388212323189 96:0.017618373036384583 97:0.17294929921627045 98:0.940909743309021 99:0.21502427756786346 100:0.0285180751234293 101:0.016455253586173058 102:0.019309252500534058 103:0.017266327515244484 104:0.024923814460635185 105:0.03728034719824791 106:0.006687471643090248 107:0.021742165088653564 108:0.0074768210761249065 109:0.2746320366859436 110:0.130111426115036 111:0.007065255660563707 112:0.0 113:0.13988493382930756 114:0.2832382619380951 115:0.1739940047264099 116:0.1386151909828186 117:0.1030682921409607 118:0.35244351625442505 119:0.06953932344913483 120:0.0 121:0.022342301905155182 122:0.0049958904273808 123:0.044684603810310364 124:0.06746973097324371 125:0.15470390021800995 126:0.11538893729448318 127:0.39407914876937866 128:0.20162203907966614 129:0.07841741293668747 130:0.10638277232646942 131:0.029975343495607376 132:0.1899142563343048 133:0.12157997488975525 134:0.12983721494674683 135:0.1680857390165329 136:0.044963013380765915 137:0.011171150952577591 138:0.0 139:0.01579839363694191 140:0.4246506989002228 141:0.23496663570404053 142:0.1483703851699829 143:0.029184091836214066 144:0.056995563209056854 145:0.46859684586524963 146:0.007359028793871403 147:0.06946852058172226 148:0.06604286283254623 149:0.0772845596075058 150:0.038077495992183685 151:0.03738253191113472 152:0.01870162971317768 153:0.2628304958343506 154:0.07567568123340607 155:0.2708524465560913 156:0.15663699805736542 157:0.11520678550004959 158:0.028131477534770966 159:0.012535943649709225 160:0.003772345371544361 161:0.014322299510240555 162:0.012269663624465466 163:0.1618330329656601 164:0.024106040596961975 165:0.036007024347782135 166:0.0068440791219472885 167:0.0160494577139616 168:0.010157275013625622 169:0.009536320343613625 170:0.013663381338119507 171:0.5081636309623718 172:0.4796263873577118 173:0.23304183781147003 174:0.01820811629295349 175:0.031356826424598694 176:0.00892309844493866 177:0.020059071481227875 178:0.018380800262093544 179:0.002846670104190707 180:0.03515103459358215 181:0.2126617431640625 182:0.964153528213501 183:0.022565599530935287 184:0.007526175584644079 185:0.021839743480086327 186:0.09119413793087006 187:0.03558977693319321 188:0.05974186956882477 189:0.04219214618206024 190:0.012815690599381924 191:0.01154220849275589 192:0.026489105075597763 193:0.019153008237481117 194:0.022673914209008217 195:0.030138829723000526 196:0.027362842112779617 197:0.015926329419016838 198:0.011246743611991405 199:0.03104042261838913 200:0.010167530737817287 201:0.030108913779258728 202:0.01634364016354084 203:0.01873062551021576 204:0.0044087315909564495 205:0.021050497889518738 206:0.01154220849275589 207:0.005026727449148893 208:0.013801513239741325 209:0.0022043657954782248 210:0.01812412217259407 211:0.014708269387483597 212:0.020702268928289413 213:0.026299096643924713 214:0.014079681597650051 215:0.0044087315909564495 216:0.0 217:0.10736926645040512 218:0.03079797327518463 219:0.01731986738741398 220:0.011458586901426315 221:0.005812233779579401 222:0.0036759793292731047 223:0.013151583261787891 224:0.06607116013765335 225:0.05165749043226242 226:0.14031803607940674 227:0.02037171460688114 228:0.03409766033291817 229:0.01405789703130722 230:0.0384187176823616 231:0.026608476415276527 232:0.030813638120889664 233:0.047509171068668365 234:0.23601198196411133 235:0.018976425752043724 236:0.05010848119854927 237:0.005812233779579401 238:0.005198619794100523 239:0.01992681995034218 240:0.05535947158932686 241:0.10376632958650589 242:0.047758061438798904 243:0.02994423918426037 244:0.24534951150417328 245:0.7334282994270325 246:0.48104459047317505 247:0.1336672306060791 248:0.02680065669119358 249:0.024283569306135178 250:0.02307840622961521 251:0.01405155099928379 252:0.1658926159143448 253:0.2739867866039276 254:0.09698519855737686 255:0.06962304562330246 256:0.2370821088552475 257:0.29159310460090637 258:0.04104560986161232 259:0.022203445434570312 260:0.02375730685889721 261:0.23733903467655182 262:0.4391212463378906 263:0.01536267064511776 264:0.014025725424289703 265:0.0333259217441082 266:0.1526288241147995 267:0.05104435980319977 268:0.1554468274116516 269:0.0846455991268158 270:0.26822468638420105 271:0.37528055906295776 272:0.0889979749917984 273:0.07258012890815735 274:0.019148938357830048 275:0.012510061264038086 276:0.020371949300169945 277:0.009244202636182308 278:0.014089521951973438 279:0.11453152447938919 280:0.3149957060813904 281:0.002670418471097946 282:0.00846606120467186 283:0.01383238099515438 284:0.008966958150267601 285:0.1393398493528366 286:0.15214155614376068 287:0.09921648353338242 288:0.25784337520599365 289:0.0435386560857296 290:0.021455887705087662 291:0.04072074592113495 292:0.03585347905755043 293:0.03958059847354889 294:0.044635456055402756 295:0.04785623401403427 296:0.017700981348752975 297:0.006258241832256317 298:0.04781786724925041 299:0.024836475029587746 300:0.046318281441926956 301:0.030285974964499474 302:0.015832239761948586 303:0.013275736942887306 304:0.03078647516667843 305:0.031971968710422516 306:0.006258241832256317 307:0.06433332711458206 308:0.029332520440220833 309:0.04094976186752319 310:0.073710598051548 311:0.08191859722137451 312:0.12724566459655762 313:0.38528677821159363 314:0.8301659822463989 315:0.19268204271793365 316:0.020033929497003555 317:0.004425245337188244 318:0.016792625188827515 319:0.10078593343496323 320:0.22086691856384277 321:0.09752412885427475 322:0.030786478891968727 323:0.011560739949345589 324:0.010091111995279789 
0.0 0.28220257498310786 0.0 0.018831602004426864 0.0 1:0.4442330598831177 2:0.04050344601273537 3:0.0619039349257946 4:0.025859076529741287 5:0.05741114169359207 6:0.016241107136011124 7:0.034037671983242035 8:0.03102928213775158 9:0.4746251106262207 10:0.14353401958942413 11:0.06205856427550316 12:0.04949193447828293 13:0.026909146457910538 14:0.23236891627311707 15:0.051614001393318176 16:0.04254709184169769 17:0.04709100350737572 18:0.01902763918042183 19:0.39329153299331665 20:0.09208779036998749 21:0.05998722463846207 22:0.04109549894928932 23:0.04512801021337509 24:0.035268742591142654 25:0.034037671983242035 26:0.020181860774755478 27:0.516962468624115 28:0.11266255378723145 29:0.04709100350737572 30:0.07752984762191772 31:0.04105011373758316 32:0.036102406680583954 33:0.06506858021020889 34:0.029782967641949654 35:0.07699403166770935 36:0.037258896976709366 37:0.10369434207677841 38:0.05413508787751198 39:0.10804171860218048 40:0.17877782881259918 41:0.32943645119667053 42:0.04791777953505516 43:0.07773436605930328 44:0.08637616783380508 45:0.011946748942136765 46:0.10955891758203506 47:0.016895253211259842 48:0.03205648809671402 49:0.08407658338546753 50:0.682156503200531 51:0.020394377410411835 52:0.058770228177309036 53:0.042238134890794754 54:0.07894030213356018 55:0.06044629588723183 56:0.07792854309082031 57:0.06945572048425674 58:0.1064768061041832 59:0.10982739925384521 60:0.035971030592918396 61:0.0669323056936264 62:0.04095848649740219 63:0.035840246826410294 64:0.12937411665916443 65:0.042238134890794754 66:0.09135574847459793 67:0.12537167966365814 68:0.461789608001709 69:0.08863610029220581 70:0.06704886257648468 71:0.07474899291992188 72:0.011946748942136765 73:0.08043089509010315 74:0.030573535710573196 75:0.027830371633172035 76:0.03403504937887192 77:0.6280744671821594 78:0.03305382281541824 79:0.07632693648338318 80:0.03771744295954704 81:0.0 82:0.048248179256916046 83:0.05559393763542175 84:0.011927302926778793 85:0.09734421223402023 86:0.7084885239601135 87:0.040321290493011475 88:0.01987883821129799 89:0.0440036840736866 90:0.04445043206214905 91:0.09099961072206497 92:0.049337685108184814 93:0.05599885806441307 94:0.04204123094677925 95:0.07309360057115555 96:0.04660753160715103 97:0.01987883821129799 98:0.06183997914195061 99:0.01778017356991768 100:0.16086812317371368 101:0.045417480170726776 102:0.03578190878033638 103:0.02514496259391308 104:0.03373550623655319 105:0.06438770890235901 106:0.03578190878033638 107:0.022708740085363388 108:0.01778017356991768 109:0.3720496594905853 110:0.07452426105737686 111:0.110989049077034 112:0.08793207257986069 113:0.07239317148923874 114:0.0825127437710762 115:0.056704193353652954 116:0.05520212650299072 117:0.5396133065223694 118:0.1395357847213745 119:0.13441947102546692 120:0.06900244206190109 121:0.06404782831668854 122:0.06128060445189476 123:0.030858833342790604 124:0.06740472465753555 125:0.029117973521351814 126:0.03419758379459381 127:0.37911298871040344 128:0.1023750901222229 129:0.09581822156906128 130:0.07036617398262024 131:0.10152944177389145 132:0.06990290433168411 133:0.0894651934504509 134:0.012997079640626907 135:0.46655240654945374 136:0.1417548507452011 137:0.07912649214267731 138:0.07187502831220627 139:0.0915747880935669 140:0.11174698173999786 141:0.04572156444191933 142:0.03109203651547432 143:0.062041569501161575 144:0.011399193666875362 145:0.09448781609535217 146:0.18294928967952728 147:0.2216808944940567 148:0.062135737389326096 149:0.16018642485141754 150:0.07345160841941833 151:0.05441656708717346 152:0.05788509175181389 153:0.08910194039344788 154:0.10662489384412766 155:0.09244009107351303 156:0.11987221986055374 157:0.20380960404872894 158:0.26625341176986694 159:0.1595781296491623 160:0.11974656581878662 161:0.05484043434262276 162:0.03776691108942032 163:0.16772951185703278 164:0.01444333791732788 165:0.06734289228916168 166:0.08320215344429016 167:0.13357588648796082 168:0.017194239422678947 169:0.14888955652713776 170:0.1583249419927597 171:0.2791319191455841 172:0.015766123309731483 173:0.029833873733878136 174:0.43428468704223633 175:0.5127966403961182 176:0.17598585784435272 177:0.03926663100719452 178:0.0 179:0.006294490769505501 180:0.0 181:0.3303745985031128 182:0.32450729608535767 183:0.5401185154914856 184:0.2053283303976059 185:0.13231131434440613 186:0.08477169275283813 187:0.16207699477672577 188:0.21134774386882782 189:0.1731603890657425 190:0.019818389788269997 191:0.014285878278315067 192:0.011250537820160389 193:0.003376888809725642 194:0.020387571305036545 195:0.013943379744887352 196:0.016123726963996887 197:0.01388729177415371 198:0.0 199:0.03273458406329155 200:0.17198446393013 201:0.5190176963806152 202:0.09354594349861145 203:0.11495386064052582 204:0.005501158535480499 205:0.012304677627980709 206:0.003376888809725642 207:0.007163463160395622 208:0.02274581417441368 209:0.010820089839398861 210:0.015536926686763763 211:0.007915118709206581 212:0.016674591228365898 213:0.010566490702331066 214:0.019890831783413887 215:0.016884444281458855 216:0.0 217:0.07448328286409378 218:0.009686370380222797 219:0.013270929455757141 220:0.013741008006036282 221:0.012485066428780556 222:0.006672427523881197 223:0.004815422464162111 224:0.008882827125489712 225:0.03688792884349823 226:0.03537748008966446 227:0.30910685658454895 228:0.012479576282203197 229:0.011748329736292362 230:0.010782557539641857 231:0.00846403744071722 232:0.009710314683616161 233:0.015072171576321125 234:0.11012037843465805 235:0.15507283806800842 236:0.00761385215446353 237:0.010874436236917973 238:0.008297162130475044 239:0.011917563155293465 240:0.0030635776929557323 241:0.00882827490568161 242:0.007122062612324953 243:0.043080832809209824 244:0.7202111482620239 245:0.5255411863327026 246:0.004453872796148062 247:0.005431659985333681 248:0.007377539295703173 249:0.0038069263100624084 250:0.006059013307094574 251:0.008212980814278126 252:0.2470896691083908 253:0.22645549476146698 254:0.1675160825252533 255:0.1471910923719406 256:0.33487358689308167 257:0.12516909837722778 258:0.20533113181591034 259:0.1655598282814026 260:0.13668175041675568 261:0.18917487561702728 262:0.1990012526512146 263:0.16946478188037872 264:0.08363060653209686 265:0.10339006781578064 266:0.12357014417648315 267:0.1326083093881607 268:0.04289870336651802 269:0.11514078080654144 270:0.12721432745456696 271:0.4564201235771179 272:0.35531315207481384 273:0.13193723559379578 274:0.1865236908197403 275:0.07302018254995346 276:0.010507691651582718 277:0.00792122446000576 278:0.01510838232934475 279:0.14527392387390137 280:0.27351248264312744 281:0.035288698971271515 282:0.014613274484872818 283:0.028995683416724205 284:0.005286580417305231 285:0.021614879369735718 286:0.010970192961394787 287:0.016822034493088722 288:0.07344376295804977 289:0.045592255890369415 290:0.02036004513502121 291:0.014787057414650917 292:0.017201006412506104 293:0.031368087977170944 294:0.026608549058437347 295:0.014787057414650917 296:0.0 297:0.005510811228305101 298:0.028448335826396942 299:0.026643337681889534 300:0.060746535658836365 301:0.013304275460541248 302:0.03833877295255661 303:0.04326164349913597 304:0.02107034996151924 305:0.021870218217372894 306:0.011021622456610203 307:0.04957492649555206 308:0.02036004699766636 309:0.02978370524942875 310:0.021097738295793533 311:0.027882743626832962 312:0.044875722378492355 313:0.043216489255428314 314:0.01407675538212061 315:0.005510811228305101 316:0.04064703732728958 317:0.3106149733066559 318:0.8494380116462708 319:0.3735024333000183 320:0.1118430644273758 321:0.04746159166097641 322:0.024854687973856926 323:0.017973486334085464 324:0.03609311208128929 
0.0 0.16269220249835736 0.02122935670905335 0.0 0.0 1:0.46231403946876526 2:0.05462592467665672 3:0.10579630732536316 4:0.06272950023412704 5:0.17767205834388733 6:0.09230045974254608 7:0.15869446098804474 8:0.09644558280706406 9:0.0 10:0.07480929046869278 11:0.06272950023412704 12:0.10579629987478256 13:0.08363933116197586 14:0.19637438654899597 15:0.09230045974254608 16:0.20563508570194244 17:0.08363933116197586 18:0.0 19:0.5756776928901672 20:0.1676618903875351 21:0.06612269580364227 22:0.08363933116197586 23:0.15896974503993988 24:0.029570968821644783 25:0.14546990394592285 26:0.04181966558098793 27:0.14323434233665466 28:0.21659418940544128 29:0.06272950023412704 30:0.05289815366268158 31:0.13132107257843018 32:0.14026741683483124 33:0.08363933116197586 34:0.17191898822784424 35:0.020909832790493965 36:0.038555823266506195 37:0.06289328634738922 38:0.008745255880057812 39:0.027654925361275673 40:0.013117884285748005 41:0.02151048555970192 42:0.004372627940028906 43:0.034705571830272675 44:0.008745255880057812 45:0.006183829624205828 46:0.043261703103780746 47:0.015795907005667686 48:0.03895208612084389 49:0.047348685562610626 50:0.04497646912932396 51:0.023674340918660164 52:0.02917459048330784 53:0.004372627940028906 54:0.006183829624205828 55:0.03128797933459282 56:0.008745255880057812 57:0.1372326761484146 58:0.13848717510700226 59:0.20738306641578674 60:0.008745255880057812 61:0.027654927223920822 62:0.014150120317935944 63:0.008062726818025112 64:0.05163145065307617 65:0.014903310686349869 66:0.23283438384532928 67:0.2668690085411072 68:0.826076328754425 69:0.23391766846179962 70:0.1866769790649414 71:0.014101301319897175 72:0.013827463611960411 73:0.17365875840187073 74:0.17924922704696655 75:0.11803731322288513 76:0.12765470147132874 77:0.11099448800086975 78:0.16301383078098297 79:0.1190226823091507 80:0.11681720614433289 81:0.02542455494403839 82:0.09425518661737442 83:0.0911751314997673 84:0.20229963958263397 85:0.08414900302886963 86:0.23534239828586578 87:0.10600271821022034 88:0.1316717565059662 89:0.0911751314997673 90:0.019499745219945908 91:0.04933088272809982 92:0.10496354103088379 93:0.08806900680065155 94:0.15849585831165314 95:0.25993025302886963 96:0.28230637311935425 97:0.5444707274436951 98:0.09651880711317062 99:0.019499745219945908 100:0.15667790174484253 101:0.09961986541748047 102:0.26429519057273865 103:0.22330768406391144 104:0.1171608492732048 105:0.11171406507492065 106:0.03967422991991043 107:0.013788401149213314 108:0.019499745219945908 109:0.17315031588077545 110:0.01441464014351368 111:0.035439733415842056 112:0.0 113:0.029008902609348297 114:0.01740001142024994 115:0.026323115453124046 116:0.016621707007288933 117:0.090983085334301 118:0.3015821576118469 119:0.4243490397930145 120:0.04465742036700249 121:0.01019268948584795 122:0.046869948506355286 123:0.03181464970111847 124:0.05483533814549446 125:0.00360366003587842 126:0.10449520498514175 127:0.10380534827709198 128:0.020225366577506065 129:0.02279154770076275 130:0.030321966856718063 131:0.012892846018075943 132:0.036404285579919815 133:0.017206499353051186 134:0.018018299713730812 135:0.14828509092330933 136:0.3614366352558136 137:0.03768059238791466 138:0.05255177244544029 139:0.01740001142024994 140:0.07121413201093674 141:0.005096344742923975 142:0.028602274134755135 143:0.14154015481472015 144:0.6856381297111511 145:0.06913518905639648 146:0.09483284503221512 147:0.2775382399559021 148:0.21010944247245789 149:0.1815902143716812 150:0.09903722256422043 151:0.07669440656900406 152:0.07752393186092377 153:0.03384244814515114 154:0.142954021692276 155:0.23560288548469543 156:0.34276410937309265 157:0.13401071727275848 158:0.12765805423259735 159:0.10555800050497055 160:0.06503170728683472 161:0.041001830250024796 162:0.08248915523290634 163:0.028369400650262833 164:0.014200852252542973 165:0.01599748060107231 166:0.3670671582221985 167:0.08080413937568665 168:0.1136588454246521 169:0.06321243196725845 170:0.13619256019592285 171:0.052482958883047104 172:0.011760997585952282 173:0.11465274542570114 174:0.5001084804534912 175:0.3193601369857788 176:0.10644833743572235 177:0.013660390861332417 178:0.0040727416053414345 179:0.0032197851687669754 180:0.003671119688078761 181:0.42875486612319946 182:0.31078317761421204 183:0.08221635967493057 184:0.06819871068000793 185:0.04068748280405998 186:0.13550180196762085 187:0.46472862362861633 188:0.13832822442054749 189:0.17332951724529266 190:0.007389124482870102 191:0.02208731137216091 192:0.06264598667621613 193:0.05288580432534218 194:0.04697638377547264 195:0.018357805907726288 196:0.03147513046860695 197:0.007194075733423233 198:0.005077690351754427 199:0.2160133421421051 200:0.12725873291492462 201:0.5793190002441406 202:0.03484759479761124 203:0.024717936292290688 204:0.02112780325114727 205:0.02612449787557125 206:0.017128776758909225 207:0.05103357881307602 208:0.05104765668511391 209:0.011015056632459164 210:0.028946952894330025 211:0.019557319581508636 212:0.037047550082206726 213:0.04233643785119057 214:0.01663174293935299 215:0.019895680248737335 216:0.005077690351754427 217:0.10948753356933594 218:0.011292701587080956 219:0.021747956052422523 220:0.031043102964758873 221:0.015378128737211227 222:0.020051145926117897 223:0.0019770869985222816 224:0.011277787387371063 225:0.023077689111232758 226:0.7967026233673096 227:0.38221028447151184 228:0.05944880470633507 229:0.015142297372221947 230:0.019572164863348007 231:0.10648533701896667 232:0.1723041534423828 233:0.16298601031303406 234:0.2260046750307083 235:0.05090239644050598 236:0.011292701587080956 237:0.04280102252960205 238:0.012016248889267445 239:0.01677614077925682 240:0.023177197203040123 241:0.016903124749660492 242:0.023796899244189262 243:0.011549390852451324 244:0.16096772253513336 245:0.12198908627033234 246:0.061728496104478836 247:0.01770876534283161 248:0.040757399052381516 249:0.1547701507806778 250:0.005931260995566845 251:0.03574151545763016 252:0.0562741756439209 253:0.11095953732728958 254:0.11111800372600555 255:0.1390136331319809 256:0.07738590985536575 257:0.25222548842430115 258:0.05675780028104782 259:0.13948260247707367 260:0.11548243463039398 261:0.09699942916631699 262:0.4035038352012634 263:0.1661604791879654 264:0.5928544402122498 265:0.015623756684362888 266:0.04702303186058998 267:0.06236915662884712 268:0.06104385852813721 269:0.039622001349925995 270:0.28634822368621826 271:0.06928953528404236 272:0.16225430369377136 273:0.15119504928588867 274:0.019029822200536728 275:0.06451825052499771 276:0.16900452971458435 277:0.21748895943164825 278:0.09723867475986481 279:0.03897450119256973 280:0.18567809462547302 281:0.053120072931051254 282:0.04150639474391937 283:0.06719690561294556 284:0.04481044039130211 285:0.013855502009391785 286:0.03899860382080078 287:0.048007041215896606 288:0.10265250504016876 289:0.18380023539066315 290:0.050664953887462616 291:0.21268364787101746 292:0.17419865727424622 293:0.06230965256690979 294:0.08641581982374191 295:0.0640866607427597 296:0.06617987155914307 297:0.017912765964865685 298:0.17790718376636505 299:0.2325981706380844 300:0.21415814757347107 301:0.2982238829135895 302:0.20474396646022797 303:0.17298096418380737 304:0.02403249591588974 305:0.03799871727824211 306:0.0 307:0.18762630224227905 308:0.0 309:0.02403249591588974 310:0.06660062819719315 311:0.0911010354757309 312:0.18161839246749878 313:0.2854624092578888 314:0.2945377230644226 315:0.10589170455932617 316:0.17155197262763977 317:0.03308993577957153 318:0.13060416281223297 319:0.22295911610126495 320:0.13658350706100464 321:0.04317057877779007 322:0.26612260937690735 323:0.28993096947669983 324:0.19961395859718323 
0.02589489619957877 0.13427317680446327 0.0 0.30166294825744927 0.07476381624920539 1:0.5991913080215454 2:0.014467044733464718 3:0.025577455759048462 4:0.023603107780218124 5:0.04745637997984886 6:0.03266056254506111 7:0.039021193981170654 8:0.03491164743900299 9:0.2429513931274414 10:0.04745637997984886 11:0.028047144412994385 12:0.02563602291047573 13:0.10831713676452637 14:0.09548504650592804 15:0.0694665014743805 16:0.07716351747512817 17:0.08636973053216934 18:0.06046920269727707 19:0.6655092835426331 20:0.02646978385746479 21:0.0080536138266325 22:0.059792157262563705 23:0.011389531195163727 24:0.018736692145466805 25:0.04849141836166382 26:0.040022969245910645 27:0.23682527244091034 28:0.09196601808071136 29:0.026402145624160767 30:0.02972070500254631 31:0.024805216118693352 32:0.022779062390327454 33:0.018736692145466805 34:0.08607496321201324 35:0.03591366857290268 36:0.006002809852361679 37:0.04960526153445244 38:0.018794843927025795 39:0.01430522557348013 40:0.048107024282217026 41:0.2453581839799881 42:0.04864788055419922 43:0.06602305918931961 44:0.05119466036558151 45:0.029845301061868668 46:0.053050827234983444 47:0.025908993557095528 48:0.009297396056354046 49:0.10135643929243088 50:0.28392142057418823 51:0.04415929690003395 52:0.028768222779035568 53:0.07585929334163666 54:0.023846492171287537 55:0.037983592599630356 56:0.02936684899032116 57:0.030114222317934036 58:0.06542937457561493 59:0.03913584351539612 60:0.07284796983003616 61:0.07343462109565735 62:0.0711565837264061 63:0.025625066831707954 64:0.06864538788795471 65:0.04633435606956482 66:0.23356644809246063 67:0.022114185616374016 68:0.7740115523338318 69:0.047811079770326614 70:0.2374817281961441 71:0.21412205696105957 72:0.17233864963054657 73:0.08034072816371918 74:0.04556652158498764 75:0.011874375864863396 76:0.02169935777783394 77:0.5992264151573181 78:0.01408986747264862 79:0.08803124725818634 80:0.04638925567269325 81:0.03405465930700302 82:0.07361412793397903 83:0.02154257893562317 84:0.018270239233970642 85:0.019926080480217934 86:0.7364163994789124 87:0.025182023644447327 88:0.07137198746204376 89:0.08452311158180237 90:0.034491170197725296 91:0.09520544856786728 92:0.0390898622572422 93:0.007830101996660233 94:0.013445706106722355 95:0.014764583669602871 96:0.02753557451069355 97:0.06704992055892944 98:0.08877726644277573 99:0.05332212895154953 100:0.08628968149423599 101:0.021542580798268318 102:0.030330102890729904 103:0.019345810636878014 104:0.01107343751937151 105:0.03811844810843468 106:0.07359784841537476 107:0.08563060313463211 108:0.08355057239532471 109:0.48626694083213806 110:0.0047217742539942265 111:0.04504864662885666 112:0.02279874123632908 113:0.02956298179924488 114:0.029476337134838104 115:0.025489768013358116 116:0.0854894146323204 117:0.4490267336368561 118:0.10879725217819214 119:0.031222499907016754 120:0.044794682413339615 121:0.04087571054697037 122:0.06563565135002136 123:0.042803697288036346 124:0.04210406914353371 125:0.0 126:0.06722326576709747 127:0.49556002020835876 128:0.03893420845270157 129:0.0560162216424942 130:0.07577141374349594 131:0.040295954793691635 132:0.05695151165127754 133:0.0 134:0.03970218077301979 135:0.4663839042186737 136:0.02551446296274662 137:0.08807994425296783 138:0.06658504158258438 139:0.1045331135392189 140:0.07033384591341019 141:0.03028646484017372 142:0.06454236805438995 143:0.03025863505899906 144:0.07796439528465271 145:0.0021943841129541397 146:0.19069403409957886 147:0.10050176084041595 148:0.1155674085021019 149:0.09913910925388336 150:0.07636453956365585 151:0.18805865943431854 152:0.018049636855721474 153:0.20142090320587158 154:0.19327326118946075 155:0.31735673546791077 156:0.12330352514982224 157:0.17827819287776947 158:0.19251947104930878 159:0.08421981334686279 160:0.028544289991259575 161:0.15898126363754272 162:0.0726153701543808 163:0.2583717703819275 164:0.18790608644485474 165:0.060565464198589325 166:0.032092735171318054 167:0.09127464145421982 168:0.009769515134394169 169:0.017503494396805763 170:0.02477225288748741 171:0.21142658591270447 172:0.0680672824382782 173:0.1458866447210312 174:0.6251582503318787 175:0.10035262256860733 176:7.98324472270906E-4 177:0.007363947574049234 178:7.526674889959395E-4 179:5.950359627604485E-4 180:0.0 181:0.2596568167209625 182:0.3786642551422119 183:0.3461315631866455 184:0.008645383641123772 185:0.0713614746928215 186:0.034855082631111145 187:0.3486182987689972 188:0.17490097880363464 189:0.5510719418525696 190:0.09807261824607849 191:0.04148732125759125 192:0.03153508901596069 193:0.044139645993709564 194:0.012580880895256996 195:0.04146570712327957 196:0.04932713881134987 197:0.06012234836816788 198:0.08201773464679718 199:0.16382989287376404 200:0.25821763277053833 201:0.16203300654888153 202:0.013334001414477825 203:0.02952892705798149 204:0.015380310826003551 205:0.050775859504938126 206:0.0422949455678463 207:0.10763786733150482 208:0.12620408833026886 209:0.1355491727590561 210:0.028276119381189346 211:0.04058867692947388 212:0.027258574962615967 213:0.03282032161951065 214:0.025352220982313156 215:0.03861577436327934 216:0.023446111008524895 217:0.24118231236934662 218:0.026277227327227592 219:0.03127644956111908 220:0.015015140175819397 221:0.004950550384819508 222:0.0 223:0.015002434141933918 224:0.007294109556823969 225:0.16973519325256348 226:0.046093132346868515 227:0.07509363442659378 228:0.2688242197036743 229:0.3117830455303192 230:0.46488016843795776 231:0.2458895742893219 232:0.09151620417833328 233:0.3065868318080902 234:0.16518114507198334 235:0.19490975141525269 236:0.0364837683737278 237:0.02408895082771778 238:0.015971576794981956 239:0.004950550384819508 240:0.0015813953941687942 241:0.007550734560936689 242:0.011102613992989063 243:0.23327361047267914 244:0.1602439284324646 245:0.041860535740852356 246:0.09158645570278168 247:0.024027995765209198 248:0.014202962629497051 249:0.005842566955834627 250:0.023204071447253227 251:0.009488373063504696 252:0.44194361567497253 253:0.2410924732685089 254:0.2279134839773178 255:0.06642080098390579 256:0.5750435590744019 257:0.3613421618938446 258:0.3192204535007477 259:0.045311301946640015 260:0.0519530363380909 261:0.23804061114788055 262:0.2772899270057678 263:0.13148213922977448 264:0.011389938183128834 265:0.04690426215529442 266:0.011932041496038437 267:0.00989763718098402 268:0.05412206053733826 269:0.023441262543201447 270:0.1131051704287529 271:0.025448255240917206 272:0.1062827929854393 273:0.11819086223840714 274:0.04235256835818291 275:0.015613410621881485 276:0.0 277:0.008200045675039291 278:0.012994512915611267 279:0.027088044211268425 280:0.22863510251045227 281:0.010485578328371048 282:0.03581736236810684 283:0.034555595368146896 284:0.04425809904932976 285:0.04058349132537842 286:0.0102095827460289 287:0.0 288:0.24586129188537598 289:0.2560085356235504 290:0.08734693378210068 291:0.09470991790294647 292:0.11583438515663147 293:0.039829932153224945 294:0.08909285813570023 295:0.030494937673211098 296:0.03542578965425491 297:0.10245714336633682 298:0.20006537437438965 299:0.1477983146905899 300:0.059132497757673264 301:0.04350927844643593 302:0.054205380380153656 303:0.11682000011205673 304:0.020329957827925682 305:0.12067040801048279 306:0.0900493636727333 307:0.05111237242817879 308:0.012957856990396976 309:0.15392498672008514 310:0.0993056520819664 311:0.6252390146255493 312:0.36873963475227356 313:0.18297500908374786 314:0.04510234668850899 315:0.0 316:0.20665375888347626 317:0.0827585980296135 318:0.26012951135635376 319:0.20355848968029022 320:0.021563177928328514 321:0.08466950058937073 322:0.05361776798963547 323:0.04346190765500069 324:0.07422594726085663 
0.0 0.0 0.03715271865661362 0.0 0.0 1:0.16071709990501404 2:0.09982620924711227 3:0.07576276361942291 4:0.07986097037792206 5:0.2232181876897812 6:0.09640072286128998 7:0.18940690159797668 8:0.1397566944360733 9:0.21047960221767426 10:0.1250021904706955 11:0.08457411825656891 12:0.17109137773513794 13:0.0681656002998352 14:0.2232181876897812 15:0.12182854115962982 16:0.18940690159797668 17:0.11979144811630249 18:0.07376287132501602 19:0.2712940573692322 20:0.16443510353565216 21:0.15984225273132324 22:0.19280143082141876 23:0.1257411539554596 24:0.12806132435798645 25:0.22978894412517548 26:0.08801315724849701 27:0.15833352506160736 28:0.20680966973304749 29:0.0920887142419815 30:0.24667766690254211 31:0.2829863429069519 32:0.26786184310913086 33:0.14148469269275665 34:0.19634562730789185 35:0.11195870488882065 36:0.0 37:0.03004569560289383 38:0.028159277513623238 39:0.018716169521212578 40:0.0394781194627285 41:0.03474011644721031 42:0.03572174161672592 43:0.0046790423803031445 44:0.02076106145977974 45:0.010462656617164612 46:0.0385856069624424 47:0.014796431176364422 48:0.0433969609439373 49:0.03416771814227104 50:0.036394406110048294 51:0.015751253813505173 52:0.0046790423803031445 53:0.0036991077940911055 54:0.005231328308582306 55:0.04819933697581291 56:0.01336284726858139 57:0.32773715257644653 58:0.3766742944717407 59:0.31562694907188416 60:0.09918280690908432 61:0.014037125743925571 62:0.012598707340657711 63:0.0 64:0.1738537698984146 65:0.14399394392967224 66:0.31745243072509766 67:0.46998825669288635 68:0.3054380714893341 69:0.3926825523376465 70:0.055139776319265366 71:0.01849553734064102 72:0.04297725483775139 73:0.041330546140670776 74:0.024924442172050476 75:0.013091015629470348 76:0.028978198766708374 77:0.06109452620148659 78:0.012419228442013264 79:0.018327420577406883 80:0.008279485628008842 81:0.011708960868418217 82:0.02829858288168907 83:0.02421136572957039 84:0.052882567048072815 85:0.05936237424612045 86:0.04813507944345474 87:0.014133965596556664 88:0.026182029396295547 89:0.028978198766708374 90:0.019342267885804176 91:0.1793430745601654 92:0.23871715366840363 93:0.20285193622112274 94:0.06424122303724289 95:0.1524699181318283 96:0.21013034880161285 97:0.3456520140171051 98:0.8019452691078186 99:0.05928764119744301 100:0.07643366605043411 101:0.042328473180532455 102:0.023563826456665993 103:0.05239612236618996 104:0.02036484144628048 105:0.014109564013779163 106:0.01711135543882847 107:0.016558971256017685 108:0.0076333084143698215 109:0.08913803100585938 110:0.02620713785290718 111:0.03678459674119949 112:0.030047651380300522 113:0.040313154458999634 114:0.016500063240528107 115:0.04343726113438606 116:0.021551765501499176 117:0.006070542614907026 118:0.6616042256355286 119:0.022428009659051895 120:0.01900380291044712 121:0.01717008650302887 122:0.040313154458999634 123:0.010363064706325531 124:0.02171863056719303 125:0.004292521625757217 126:0.15319998562335968 127:0.11441769450902939 128:0.018135488033294678 129:0.02864011563360691 130:0.021462608128786087 131:0.023036088794469833 132:0.010363064706325531 133:0.03013193979859352 134:0.04741475731134415 135:0.04083732143044472 136:0.45252662897109985 137:0.004292521625757217 138:0.005429658107459545 139:0.012877565808594227 140:0.03647380694746971 141:0.0275331512093544 142:0.02321045659482479 143:0.004292521625757217 144:0.5407878160476685 145:0.07431323826313019 146:0.05294888839125633 147:0.27508580684661865 148:0.11428127437829971 149:0.18640927970409393 150:0.18347802758216858 151:0.23520344495773315 152:0.32795846462249756 153:0.1058512032032013 154:0.12073599547147751 155:0.19817666709423065 156:0.2815399765968323 157:0.3382519483566284 158:0.07559022307395935 159:0.2504311501979828 160:0.05753054842352867 161:0.11357202380895615 162:0.1597166210412979 163:0.0621575303375721 164:0.05694907531142235 165:0.04918766766786575 166:0.09851989895105362 167:0.11427600681781769 168:0.16097576916217804 169:0.039079178124666214 170:0.03661658614873886 171:0.06227751076221466 172:0.061353687196969986 173:0.20735672116279602 174:0.39140456914901733 175:0.1850847452878952 176:0.05339225009083748 177:0.026045501232147217 178:0.0 179:0.008608534000813961 180:0.0 181:0.5130466222763062 182:0.1737169474363327 183:0.08069708198308945 184:0.07356183230876923 185:0.026857854798436165 186:0.07485485076904297 187:0.10636328160762787 188:0.11613619327545166 189:0.23020686209201813 190:0.010943273082375526 191:0.005703183356672525 192:0.003607009770348668 193:0.01258753426373005 194:0.022954870015382767 195:0.013599914498627186 196:0.011303947307169437 197:0.007128979079425335 198:0.009913112036883831 199:0.04170918092131615 200:0.48839008808135986 201:0.602037250995636 202:0.03941981866955757 203:0.009564529173076153 204:0.04040885344147682 205:0.01038746815174818 206:0.0037248225416988134 207:0.04161636531352997 208:0.011580908671021461 209:0.0037248225416988134 210:0.03002775087952614 211:0.006661796476691961 212:0.009564529173076153 213:0.007128979079425335 214:0.009500443004071712 215:0.008554774336516857 216:0.0020163797307759523 217:0.03253393992781639 218:0.0012400629930198193 219:0.006274276878684759 220:0.011975107714533806 221:0.014973471872508526 222:0.0067139663733541965 223:0.00905810296535492 224:0.007943691685795784 225:0.018655968829989433 226:0.007209449540823698 227:0.07098063826560974 228:0.31658414006233215 229:0.06885694712400436 230:0.012801078148186207 231:0.011451119557023048 232:0.009058103896677494 233:0.015149598009884357 234:0.06828298419713974 235:0.07894155383110046 236:0.050914742052555084 237:0.11136344075202942 238:0.002993777161464095 239:0.010536887682974339 240:0.007227616850286722 241:0.00904714222997427 242:0.0024801259860396385 243:0.03262236714363098 244:0.1800793707370758 245:0.20770950615406036 246:0.7597985863685608 247:0.31840959191322327 248:0.16933590173721313 249:0.1034998968243599 250:0.07334118336439133 251:0.21608075499534607 252:0.120046466588974 253:0.06746155023574829 254:0.14435552060604095 255:0.09556079655885696 256:0.11351107060909271 257:0.03263958543539047 258:0.023844288662075996 259:0.02725065127015114 260:0.12980109453201294 261:0.18244695663452148 262:0.27064985036849976 263:0.2962687313556671 264:0.19322729110717773 265:0.002860158681869507 266:9.044616017490625E-4 267:0.00910096988081932 268:0.15158933401107788 269:0.08783578872680664 270:0.3066941499710083 271:0.11416368931531906 272:0.0767112672328949 273:0.16827088594436646 274:0.18494510650634766 275:0.30685293674468994 276:0.08101539313793182 277:0.00589801836758852 278:0.053681306540966034 279:0.05145295709371567 280:0.03452834114432335 281:0.009086509235203266 282:0.16655337810516357 283:0.16057614982128143 284:0.03716867417097092 285:0.0136513477191329 286:0.011631709523499012 287:0.32604357600212097 288:0.4757523834705353 289:0.02884451486170292 290:0.03238235041499138 291:0.04062211513519287 292:0.010269741527736187 293:0.04375489428639412 294:0.02485920488834381 295:0.048426855355501175 296:0.014498532749712467 297:0.031447261571884155 298:0.06160765886306763 299:0.011113019660115242 300:0.03516615554690361 301:0.046012528240680695 302:0.047559671103954315 303:0.030214715749025345 304:0.026903808116912842 305:0.019620751962065697 306:0.0 307:0.420149564743042 308:0.0382847934961319 309:0.039143726229667664 310:0.023031339049339294 311:0.06481634825468063 312:0.026715772226452827 313:0.016142286360263824 314:0.6821218132972717 315:0.5556824803352356 316:0.06165347993373871 317:0.05149456858634949 318:0.07740665972232819 319:0.07211446762084961 320:0.036145348101854324 321:0.00601587537676096 322:0.014930295757949352 323:0.008507732301950455 324:0.01203175075352192 
0.0 0.06222540015094795 0.0 0.022338876588229854 0.0 1:0.3734118938446045 2:0.04400775209069252 3:0.1398283839225769 4:0.13234639167785645 5:0.15526865422725677 6:0.13262929022312164 7:0.10401301085948944 8:0.13910403847694397 9:0.19462360441684723 10:0.1654527485370636 11:0.10963934659957886 12:0.04622800648212433 13:0.09136611968278885 14:0.22132128477096558 15:0.31706640124320984 16:0.2834666073322296 17:0.0 18:0.0595364011824131 19:0.3397177457809448 20:0.01827322505414486 21:0.20281970500946045 22:0.14060449600219727 23:0.21314924955368042 24:0.19257190823554993 25:0.19382980465888977 26:0.12541945278644562 27:0.025842241942882538 28:0.08172034472227097 29:0.11710065603256226 30:0.06934200972318649 31:0.1065041571855545 32:0.17978475987911224 33:0.14305061101913452 34:0.14503470063209534 35:0.06601113826036453 36:0.025842241942882538 37:0.043388731777668 38:0.016377238556742668 39:0.03612110763788223 40:0.03317973390221596 41:0.03334595635533333 42:0.02785104140639305 43:0.011228167451918125 44:0.012826580554246902 45:0.0 46:0.02540644258260727 47:0.011450528167188168 48:0.038175761699676514 49:0.012122705578804016 50:0.046049173921346664 51:0.0489320270717144 52:0.030427230522036552 53:0.014202632941305637 54:0.0 55:0.021095894277095795 56:0.03760916739702225 57:0.34956642985343933 58:0.20691129565238953 59:0.3018754720687866 60:0.11483559012413025 61:0.02694759890437126 62:0.012826580554246902 63:0.03391418606042862 64:0.08112984150648117 65:0.09810792654752731 66:0.5208753943443298 67:0.4571570158004761 68:0.39075183868408203 69:0.18969084322452545 70:0.12745234370231628 71:0.10108823329210281 72:0.019317669793963432 73:0.021190667524933815 74:0.027567183598876 75:0.031797878444194794 76:0.1018514633178711 77:0.11556627601385117 78:0.04039379954338074 79:0.01664895936846733 80:0.03277326375246048 81:0.007445641327649355 82:0.0498269721865654 83:0.01579459197819233 84:0.020308464765548706 85:0.06963874399662018 86:0.1651579588651657 87:0.11381569504737854 88:0.044026926159858704 89:0.05168325453996658 90:0.01489128265529871 91:0.15346427261829376 92:0.04126260429620743 93:0.08380355685949326 94:0.03968903422355652 95:0.1816868782043457 96:0.027670880779623985 97:0.6609370112419128 98:0.5811558365821838 99:0.25274285674095154 100:0.04540779069066048 101:0.03158918395638466 102:0.028468089178204536 103:0.05302279815077782 104:0.03060874156653881 105:0.041215602308511734 106:0.028468089178204536 107:0.03803812712430954 108:0.01715357042849064 109:0.23058012127876282 110:0.06624920666217804 111:0.041899677366018295 112:0.04569706320762634 113:0.10581266134977341 114:0.009464172646403313 115:0.023942671716213226 116:0.07779674977064133 117:0.03496599569916725 118:0.368587851524353 119:0.0625813752412796 120:0.03591400757431984 121:0.060705218464136124 122:0.05502258241176605 123:0.09316445142030716 124:0.04518885537981987 125:0.018928345292806625 126:0.18248645961284637 127:0.3832235336303711 128:0.018928345292806625 129:0.08439204096794128 130:0.04569706693291664 131:0.10158015787601471 132:0.03231270611286163 133:0.07182801514863968 134:0.047517433762550354 135:0.06905429065227509 136:0.4333966374397278 137:0.056785035878419876 138:0.0691315308213234 139:0.07016939669847488 140:0.07195261120796204 141:0.03231270611286163 142:0.08768122643232346 143:0.018928345292806625 144:0.5764581561088562 145:0.13844825327396393 146:0.08809822052717209 147:0.07880859822034836 148:0.24560999870300293 149:0.1786768138408661 150:0.15670794248580933 151:0.1931401789188385 152:0.22985470294952393 153:0.08384072035551071 154:0.19112569093704224 155:0.27135664224624634 156:0.09207931160926819 157:0.275073379278183 158:0.1323273777961731 159:0.15594792366027832 160:0.0173058919608593 161:0.06037401780486107 162:0.03299549221992493 163:0.09244216233491898 164:0.07837778329849243 165:0.08685176074504852 166:0.02339155599474907 167:0.031306348741054535 168:0.056582849472761154 169:0.026452239602804184 170:0.06726744771003723 171:0.13689343631267548 172:0.04433555155992508 173:0.4309646785259247 174:0.5185288190841675 175:0.04416189342737198 176:0.014903162606060505 177:0.028618650510907173 178:0.003193371929228306 179:0.017398472875356674 180:0.030308112502098083 181:0.6250278353691101 182:0.29735904932022095 183:0.05967569723725319 184:0.10446488857269287 185:0.043321847915649414 186:0.0554688461124897 187:0.1611916720867157 188:0.1297096163034439 189:0.28733235597610474 190:0.013939476571977139 191:0.010151498951017857 192:0.01670357957482338 193:0.0225429255515337 194:0.02854377217590809 195:0.010660910978913307 196:0.02658516727387905 197:0.0093231201171875 198:0.003112528705969453 199:0.05181487649679184 200:0.1239393949508667 201:0.5897834300994873 202:0.013395827263593674 203:0.016732556745409966 204:0.028755009174346924 205:0.020997855812311172 206:0.05639154091477394 207:0.014341538771986961 208:0.020926814526319504 209:0.011004450730979443 210:0.025958100333809853 211:0.01631787046790123 212:0.017716823145747185 213:0.003112528705969453 214:0.01607651263475418 215:0.011004450730979443 216:0.010045308619737625 217:0.04723407328128815 218:0.00826444011181593 219:0.008623240515589714 220:0.009848660789430141 221:0.010975681245326996 222:0.00651924405246973 223:0.008148680441081524 224:0.0011155622778460383 225:0.02204708196222782 226:0.16073861718177795 227:0.190972700715065 228:0.29278242588043213 229:0.12254263460636139 230:0.005487840622663498 231:0.012027003802359104 232:0.0437946617603302 233:0.010293149389326572 234:0.07166087627410889 235:0.05595844238996506 236:0.004029914736747742 237:0.01385303121060133 238:0.008367568254470825 239:0.012971259653568268 240:0.008583765476942062 241:0.01063329353928566 242:0.008515333756804466 243:0.054238561540842056 244:0.2661519944667816 245:0.03879232332110405 246:0.5927377939224243 247:0.1299258917570114 248:0.13858015835285187 249:0.0058484915643930435 250:0.07733504474163055 251:0.5692682862281799 252:0.17264902591705322 253:0.10592617839574814 254:0.094761922955513 255:0.2556115984916687 256:0.1371697634458542 257:0.08824531733989716 258:0.02756657637655735 259:0.002138422103598714 260:0.12974095344543457 261:0.17906808853149414 262:0.24741262197494507 263:0.0858563482761383 264:0.16329264640808105 265:0.03215806931257248 266:0.012057001702487469 267:0.0013524569803848863 268:0.14582285284996033 269:0.3627922832965851 270:0.328780859708786 271:0.009942042641341686 272:0.005948507692664862 273:0.07318795472383499 274:0.2054532915353775 275:0.15518535673618317 276:0.05273615941405296 277:0.009119251742959023 278:0.0036804601550102234 279:0.002180771203711629 280:0.11537445336580276 281:0.005946471821516752 282:0.0093917241320014 283:0.05042201280593872 284:0.033619072288274765 285:0.0019126628758385777 286:0.005775897763669491 287:0.3806385099887848 288:0.4940553307533264 289:0.14928144216537476 290:0.056573741137981415 291:0.12408190965652466 292:0.12199829518795013 293:0.10005208849906921 294:0.059957355260849 295:0.06034088507294655 296:0.016521451994776726 297:0.011682430282235146 298:0.10878875106573105 299:0.08641521632671356 300:0.16579337418079376 301:0.02820388227701187 302:0.11082926392555237 303:0.008260725997388363 304:0.03134724870324135 305:0.0 306:0.011682430282235146 307:0.3626481294631958 308:0.08440811187028885 309:0.1606946885585785 310:0.06673258543014526 311:0.1256064921617508 312:0.043308012187480927 313:0.0654924139380455 314:0.660190761089325 315:0.4074048101902008 316:0.14444385468959808 317:0.12594032287597656 318:0.12132494896650314 319:0.13061922788619995 320:0.036943089216947556 321:0.03304290398955345 322:0.020898165181279182 323:0.02984147146344185 324:0.02336486056447029 
0.0 0.04252745504924707 0.0 0.0 0.0 1:0.2772984206676483 2:0.066062331199646 3:0.10652957856655121 4:0.0497991219162941 5:0.07082722336053848 6:0.026267442852258682 7:0.034715015441179276 8:0.02058347500860691 9:0.5941458344459534 10:0.09384972602128983 11:0.07715833932161331 12:0.08555097132921219 13:0.0946260318160057 14:0.12308182567358017 15:0.07810217142105103 16:0.04339377209544182 17:0.04536907374858856 18:0.019406285136938095 19:0.39099350571632385 20:0.06595254689455032 21:0.050117675215005875 22:0.06067945435643196 23:0.05829966068267822 24:0.04116694629192352 25:0.02603626251220703 26:0.013722316361963749 27:0.5341665148735046 28:0.1122138574719429 29:0.03746858239173889 30:0.06985971331596375 31:0.039071306586265564 32:0.06136806309223175 33:0.03323482349514961 34:0.08049331605434418 35:0.03164675831794739 36:0.0223544929176569 37:0.03515820577740669 38:0.054384808987379074 39:0.021524375304579735 40:0.028791168704628944 41:0.18074443936347961 42:0.007788324262946844 43:0.025605013594031334 44:0.020081721246242523 45:0.009124589152634144 46:0.060586247593164444 47:0.02462499774992466 48:0.031697459518909454 49:0.06909763813018799 50:0.19240440428256989 51:0.007788324262946844 52:0.02376672625541687 53:0.04815925285220146 54:0.029829377308487892 55:0.07386140525341034 56:0.0032260294537991285 57:0.013363095931708813 58:0.06944890320301056 59:0.15799863636493683 60:0.12908311188220978 61:0.008161280304193497 62:0.02207813411951065 63:0.04877721145749092 64:0.024938039481639862 65:0.04142744094133377 66:0.5113325715065002 67:0.2579382061958313 68:0.5738070607185364 69:0.3636693060398102 70:0.13869795203208923 71:0.20867173373699188 72:0.009124589152634144 73:0.08361716568470001 74:0.03564853221178055 75:0.04535616934299469 76:0.14084167778491974 77:0.5316075086593628 78:0.06697198003530502 79:0.03815888240933418 80:0.08644083887338638 81:0.0 82:0.08770748227834702 83:0.06904388964176178 84:0.07999030500650406 85:0.03239545598626137 86:0.7252474427223206 87:0.02998959645628929 88:0.04545333981513977 89:0.014960887841880322 90:0.02115788869559765 91:0.16115838289260864 92:0.07965544611215591 93:0.01448768749833107 94:0.029218118637800217 95:0.046258989721536636 96:0.058745820075273514 97:0.08919601887464523 98:0.009234125725924969 99:0.20518526434898376 100:0.14523649215698242 101:0.04008733108639717 102:0.010865765623748302 103:0.040671639144420624 104:0.06957323849201202 105:0.03337801247835159 106:0.05994102731347084 107:0.029985710978507996 108:0.016197727993130684 109:0.3373880088329315 110:0.13605687022209167 111:0.0547979511320591 112:0.04631231352686882 113:0.06135100498795509 114:0.01738869771361351 115:0.01826598308980465 116:0.018862590193748474 117:0.5014408826828003 118:0.29745057225227356 119:0.08041378855705261 120:0.07557326555252075 121:0.08835254609584808 122:0.07126748561859131 123:0.027642255648970604 124:0.0410984605550766 125:0.03772518038749695 126:0.1703311949968338 127:0.44970065355300903 128:0.07685528695583344 129:0.05525011941790581 130:0.056523315608501434 131:0.05489300563931465 132:0.010210995562374592 133:0.0365319661796093 134:0.028881056234240532 135:0.403263121843338 136:0.17993474006652832 137:0.14801593124866486 138:0.10642167925834656 139:0.04518529400229454 140:0.05812200531363487 141:0.027754036709666252 142:0.0502314493060112 143:0.050541847944259644 144:0.02667573094367981 145:0.025802263990044594 146:0.19570356607437134 147:0.1724010854959488 148:0.12549522519111633 149:0.1490800678730011 150:0.07688891142606735 151:0.10767695307731628 152:0.1038624569773674 153:0.0470380000770092 154:0.08513203263282776 155:0.09203066676855087 156:0.19162572920322418 157:0.13064558804035187 158:0.17831853032112122 159:0.130067378282547 160:0.08191811293363571 161:0.05193829536437988 162:0.08436403423547745 163:0.04843554273247719 164:0.002127433894202113 165:0.04230795055627823 166:0.08177618682384491 167:0.09023420512676239 168:0.055903371423482895 169:0.19346344470977783 170:0.2529210150241852 171:0.1625797003507614 172:0.012721152976155281 173:0.04709361866116524 174:0.7086105942726135 175:0.26943615078926086 176:0.020957738161087036 177:0.02456531673669815 178:0.0 179:0.0037772420328110456 180:0.0 181:0.27289652824401855 182:0.3166440427303314 183:0.06371837854385376 184:0.22355927526950836 185:0.1203884482383728 186:0.1706402748823166 187:0.32903173565864563 188:0.13900844752788544 189:0.26334553956985474 190:0.039466023445129395 191:0.03806839883327484 192:0.02300553023815155 193:0.014773355796933174 194:0.030397338792681694 195:0.010909591801464558 196:0.02096719667315483 197:0.015473890118300915 198:0.005152340047061443 199:0.04821065068244934 200:0.413685142993927 201:0.5884813666343689 202:0.002259450498968363 203:0.015156854875385761 204:0.005454796366393566 205:0.015216768719255924 206:0.007311735302209854 207:0.024606961756944656 208:0.046375248581171036 209:0.006778351962566376 210:0.02507828362286091 211:0.019594714045524597 212:0.014146397821605206 213:0.016011707484722137 214:0.012971339747309685 215:0.020381985232234 216:0.0 217:0.2895737290382385 218:0.09406410902738571 219:0.06837166845798492 220:0.03540641814470291 221:0.057051219046115875 222:0.05277659371495247 223:0.058103401213884354 224:0.03174014389514923 225:0.3630218505859375 226:0.18618211150169373 227:0.08797340840101242 228:0.08687878400087357 229:0.055198803544044495 230:0.048901043832302094 231:0.023350905627012253 232:0.0311166662722826 233:0.015870071947574615 234:0.12333924323320389 235:0.3560306429862976 236:0.06446832418441772 237:0.0925891250371933 238:0.029331637546420097 239:0.02173379808664322 240:0.01822434365749359 241:0.0852854996919632 242:0.026779573410749435 243:0.3073346018791199 244:0.4402490258216858 245:0.3623318374156952 246:0.0693884789943695 247:0.029425688087940216 248:0.11474519968032837 249:0.02070479281246662 250:0.11940976232290268 251:0.11328880488872528 252:0.2678163945674896 253:0.03223762661218643 254:0.0578109547495842 255:0.16278795897960663 256:0.28042176365852356 257:0.10898412764072418 258:0.2459338903427124 259:0.24942055344581604 260:0.08939146250486374 261:0.19431951642036438 262:0.19834792613983154 263:0.08549091219902039 264:0.11425314098596573 265:0.14469191431999207 266:0.0738842710852623 267:0.08761163800954819 268:0.0938202515244484 269:0.09720757603645325 270:0.0 271:0.31103968620300293 272:0.1892458200454712 273:0.33419886231422424 274:0.18184375762939453 275:0.4188438057899475 276:0.08073262870311737 277:0.1971748024225235 278:0.022632669657468796 279:0.11076104640960693 280:0.013435090892016888 281:0.048544593155384064 282:0.15594357252120972 283:0.12514415383338928 284:0.07864375412464142 285:0.18225842714309692 286:0.039813119918107986 287:0.051899705082178116 288:0.03183755278587341 289:0.009298871271312237 290:0.020085999742150307 291:0.003159469459205866 292:0.03481416404247284 293:0.1394963264465332 294:0.6003736257553101 295:0.2654111683368683 296:0.08821729570627213 297:0.007064789067953825 298:0.06104530766606331 299:0.023041779175400734 300:0.04280925914645195 301:0.024120699614286423 302:0.04914981126785278 303:0.085053950548172 304:0.09119811654090881 305:0.054138652980327606 306:0.0 307:0.004468164872378111 308:0.0 309:0.0206929761916399 310:0.029045168310403824 311:0.11909370869398117 312:0.16018064320087433 313:0.34329119324684143 314:0.30161160230636597 315:0.04122346639633179 316:0.0022340824361890554 317:0.004995560273528099 318:0.0 319:0.007064789067953825 320:0.006702247075736523 321:0.14031122624874115 322:0.43725788593292236 323:0.18485985696315765 324:0.12531888484954834 
0.0 0.19069655301461033 0.0 0.009405051255762742 0.0 1:0.5132556557655334 2:0.031947266310453415 3:0.061286281794309616 4:0.03085743449628353 5:0.08294316381216049 6:0.04978622868657112 7:0.012530747801065445 8:0.04778905212879181 9:0.3451214134693146 10:0.07527601718902588 11:0.05687907710671425 12:0.0741722509264946 13:0.11741980910301208 14:0.24020951986312866 15:0.05170115828514099 16:0.052418243139982224 17:0.05708998814225197 18:0.0488230362534523 19:0.4269218444824219 20:0.09090658277273178 21:0.037592243403196335 22:0.03188830614089966 23:0.03839583694934845 24:0.025284022092819214 25:0.06718587875366211 26:0.054288093000650406 27:0.4886822998523712 28:0.07184319943189621 29:0.06255079060792923 30:0.10895504802465439 31:0.05997122451663017 32:0.13972440361976624 33:0.08276871591806412 34:0.03988749906420708 35:0.09042763710021973 36:0.03085743449628353 37:0.056743502616882324 38:0.010519567877054214 39:0.02694203145802021 40:0.14484627544879913 41:0.22134198248386383 42:0.022396806627511978 43:0.05022808164358139 44:0.0802476704120636 45:0.03201393410563469 46:0.0399881973862648 47:0.024260498583316803 48:0.03509378433227539 49:0.01495834719389677 50:0.44299325346946716 51:0.02103913575410843 52:0.050155509263277054 53:0.02952028438448906 54:0.03430952504277229 55:0.11985637992620468 56:0.013740931637585163 57:0.029939215630292892 58:0.05002238601446152 59:0.0799763947725296 60:0.06273923069238663 61:0.053508177399635315 62:0.056431788951158524 63:0.01713702082633972 64:0.0718054473400116 65:0.0709901750087738 66:0.05022808536887169 67:0.12940582633018494 68:0.7784939408302307 69:0.1638915091753006 70:0.10776812583208084 71:0.026298919692635536 72:0.03576326370239258 73:0.04549793526530266 74:0.021236823871731758 75:0.05921395123004913 76:0.035542819648981094 77:0.5665877461433411 78:0.036335721611976624 79:0.0421391986310482 80:0.03302396461367607 81:0.015016702935099602 82:0.06410742551088333 83:0.0053092059679329395 84:0.020147019997239113 85:0.02571731060743332 86:0.6407102942466736 87:0.023435968905687332 88:0.06077354773879051 89:0.07074270397424698 90:0.01729804277420044 91:0.21771259605884552 92:0.008560837246477604 93:0.07126042991876602 94:0.2395181953907013 95:0.32100751996040344 96:0.03318140283226967 97:0.03719543665647507 98:0.05428611487150192 99:0.030033405870199203 100:0.0793234184384346 101:0.07660701870918274 102:0.03357836604118347 103:0.010618411935865879 104:0.035615235567092896 105:0.07013891637325287 106:0.043984368443489075 107:0.03310856968164444 108:0.009789692237973213 109:0.5262537002563477 110:0.045971035957336426 111:0.0384293757379055 112:0.034449879080057144 113:0.03130112588405609 114:0.028087016195058823 115:0.012072674930095673 116:0.022955162450671196 117:0.38072896003723145 118:0.12391454726457596 119:0.09064321219921112 120:0.04878610745072365 121:0.05774141475558281 122:0.09413888305425644 123:0.01908857747912407 124:0.07277827709913254 125:0.045078229159116745 126:0.017996883019804955 127:0.6564387679100037 128:0.029348377138376236 129:0.05633914843201637 130:0.03082110732793808 131:0.017073340713977814 132:0.006362858694046736 133:0.044266477227211 134:0.006362858694046736 135:0.18417701125144958 136:0.17705018818378448 137:0.06905118376016617 138:0.06841181963682175 139:0.03082110919058323 140:0.0199188981205225 141:0.06622666865587234 142:0.028169576078653336 143:0.026882460340857506 144:0.06727248430252075 145:0.09691734611988068 146:0.15903261303901672 147:0.2434854805469513 148:0.2221197485923767 149:0.007135652005672455 150:0.10990092903375626 151:0.12107108533382416 152:0.04785342887043953 153:0.14673683047294617 154:0.034917574375867844 155:0.12131456285715103 156:0.2119847685098648 157:0.3178248405456543 158:0.29863840341567993 159:0.24376824498176575 160:0.12160596996545792 161:0.07285234332084656 162:0.026106884703040123 163:0.22911742329597473 164:0.016957061365246773 165:0.04197274520993233 166:0.038340430706739426 167:0.14577636122703552 168:0.020777089521288872 169:0.01342199370265007 170:0.13367755711078644 171:0.2932131886482239 172:0.003264848841354251 173:0.062341779470443726 174:0.462353378534317 175:0.21749930083751678 176:0.16750702261924744 177:0.002654699608683586 178:0.007035303395241499 179:0.0019004757050424814 180:0.0 181:0.629721999168396 182:0.4746074378490448 183:0.1940070539712906 184:0.12182018160820007 185:0.1421252191066742 186:0.047434426844120026 187:0.010163960978388786 188:0.21505381166934967 189:0.22778533399105072 190:0.021852590143680573 191:0.019783994182944298 192:0.01918322965502739 193:0.01458032801747322 194:0.019764266908168793 195:0.012052975594997406 196:0.010163960978388786 197:0.01529211550951004 198:0.006545011419802904 199:0.04439184069633484 200:0.2488952875137329 201:0.3506256639957428 202:0.10686695575714111 203:0.01624511554837227 204:0.019398972392082214 205:0.014101250097155571 206:0.011274456046521664 207:0.00916870404034853 208:0.029902778565883636 209:0.006026487797498703 210:0.003811485366895795 211:0.010876229964196682 212:0.01706913858652115 213:0.027940969914197922 214:0.023675108328461647 215:0.020530501380562782 216:0.014843498356640339 217:0.08700687438249588 218:0.02624954655766487 219:0.021316690370440483 220:0.0 221:0.02349664457142353 222:0.007607773877680302 223:0.004594053607434034 224:0.0067008184269070625 225:0.08791007846593857 226:0.08226535469293594 227:0.2670544385910034 228:0.11054085195064545 229:0.0444871224462986 230:0.13981415331363678 231:0.02810506895184517 232:0.07686392217874527 233:0.001452767290174961 234:0.08502784371376038 235:0.10258959978818893 236:0.008153585717082024 237:0.009693002328276634 238:0.015722619369626045 239:0.018227508291602135 240:0.007014581002295017 241:0.006936570163816214 242:0.0067008184269070625 243:0.08282420039176941 244:0.5571207404136658 245:0.4773768186569214 246:0.2609470784664154 247:0.06576147675514221 248:0.15845587849617004 249:0.05421515554189682 250:0.07331110537052155 251:0.03818456456065178 252:0.4396402835845947 253:0.3653128445148468 254:0.490005224943161 255:0.08321168273687363 256:0.03575203940272331 257:0.006079525221139193 258:0.02316233143210411 259:0.017725002020597458 260:0.04459015652537346 261:0.07281287014484406 262:0.13435445725917816 263:0.4232930839061737 264:0.04028458893299103 265:0.030894553288817406 266:0.022090088576078415 267:0.015411888249218464 268:0.003922007046639919 269:0.0 270:0.0 271:0.2861741781234741 272:0.17717736959457397 273:0.2627366781234741 274:0.20614251494407654 275:0.08335869759321213 276:0.11734846234321594 277:0.1561267077922821 278:0.18474002182483673 279:0.12397114932537079 280:0.171962708234787 281:0.1149396002292633 282:0.058626774698495865 283:0.018490152433514595 284:0.03748004138469696 285:0.13439056277275085 286:0.003533652052283287 287:0.07025409489870071 288:0.1383284032344818 289:0.002535963663831353 290:0.0 291:0.0 292:0.037043556571006775 293:0.2803148925304413 294:0.6822928190231323 295:0.1729244440793991 296:0.03681827336549759 297:0.0 298:0.023074785247445107 299:0.03749648109078407 300:0.023489123210310936 301:0.03140639886260033 302:0.10453473776578903 303:0.22319895029067993 304:0.26862987875938416 305:0.04614290967583656 306:0.012930928729474545 307:0.04057541862130165 308:0.04444240406155586 309:0.03586393967270851 310:0.030701769515872 311:0.08157061040401459 312:0.07076545059680939 313:0.06652585417032242 314:0.031798843294382095 315:0.01542566530406475 316:0.08988060802221298 317:0.02395768091082573 318:0.010759182274341583 319:0.02405826561152935 320:0.0 321:0.10212819278240204 322:0.3958134949207306 323:0.2894119322299957 324:0.03451431170105934 
0.07371795293594022 0.1762885243087921 0.0 0.0 0.0 1:0.08272472769021988 2:0.14645014703273773 3:0.2153768390417099 4:0.05657938867807388 5:0.148221954703331 6:0.1270461082458496 7:0.17921265959739685 8:0.17966091632843018 9:0.43667808175086975 10:0.12069256603717804 11:0.059864532202482224 12:0.15249158442020416 13:0.3131827116012573 14:0.30446839332580566 15:0.16277626156806946 16:0.08384700119495392 17:0.059864532202482224 18:0.0 19:0.45384514331817627 20:0.0964638814330101 21:0.07336612045764923 22:0.05657938867807388 23:0.11857756227254868 24:0.05657938867807388 25:0.07336612045764923 26:0.08285859227180481 27:0.06832694262266159 28:0.1259886622428894 29:0.16944420337677002 30:0.1152896136045456 31:0.0731511041522026 32:0.17045524716377258 33:0.049715157598257065 34:0.03144262358546257 35:0.07643625140190125 36:0.0 37:0.03773517906665802 38:0.024108123034238815 39:0.07327143847942352 40:0.09755486249923706 41:0.12976086139678955 42:0.018081091344356537 43:0.03430645540356636 44:0.0217723548412323 45:0.008523507975041866 46:0.057914961129426956 47:0.015716571360826492 48:0.05374304577708244 49:0.08479274064302444 50:0.27290159463882446 51:0.0701480582356453 52:0.05164840817451477 53:0.018081091344356537 54:0.017047015950083733 55:0.03850439190864563 56:0.024108123034238815 57:0.030494626611471176 58:0.044685691595077515 59:0.35679569840431213 60:0.024108123034238815 61:0.08831169456243515 62:0.006027030758559704 63:0.0 64:0.03860997408628464 65:0.0217723548412323 66:0.34183070063591003 67:0.09243375062942505 68:0.6704967021942139 69:0.2849973142147064 70:0.26221320033073425 71:0.01574532501399517 72:0.0 73:0.10068179666996002 74:0.01815066859126091 75:0.053647562861442566 76:0.19172531366348267 77:0.41842779517173767 78:0.09295810759067535 79:0.16505376994609833 80:0.1834632158279419 81:0.020756082609295845 82:0.08054543286561966 83:0.029407236725091934 84:0.08613627403974533 85:0.0450262688100338 86:0.6424397230148315 87:0.10597172379493713 88:0.1533174216747284 89:0.09258416295051575 90:0.015919189900159836 91:0.13785554468631744 92:0.07443350553512573 93:0.10027533024549484 94:0.07703892141580582 95:0.2326958328485489 96:0.04968889057636261 97:0.05695422366261482 98:0.08569007366895676 99:0.025668920949101448 100:0.11238381266593933 101:0.1022612676024437 102:0.13597121834754944 103:0.22541280090808868 104:0.08054543286561966 105:0.06753940135240555 106:0.060766834765672684 107:0.12199141085147858 108:0.03667527437210083 109:0.3776860535144806 110:0.047939691692590714 111:0.09429135918617249 112:0.05191114917397499 113:0.06002999097108841 114:0.019175877794623375 115:0.02425577864050865 116:0.019175877794623375 117:0.15965056419372559 118:0.06002999097108841 119:0.047939691692590714 120:0.042447611689567566 121:0.03835175558924675 122:0.10290855914354324 123:0.05985405668616295 124:0.06670339405536652 125:0.028763817623257637 126:0.017679285258054733 127:0.7873246073722839 128:0.019175877794623375 129:0.03031972423195839 130:0.1088639423251152 131:0.08611200749874115 132:0.08733440935611725 133:0.05184375122189522 134:0.040615156292915344 135:0.09871386736631393 136:0.27637746930122375 137:0.12670807540416718 138:0.042447611689567566 139:0.09417783468961716 140:0.08575712889432907 141:0.07774646580219269 142:0.02425577864050865 143:0.03835175558924675 144:0.05835746228694916 145:0.25432002544403076 146:0.270498663187027 147:0.19577345252037048 148:0.08219506591558456 149:0.09637991338968277 150:0.09588947147130966 151:0.04749499633908272 152:0.06231832876801491 153:0.06972883641719818 154:0.04956978186964989 155:0.07207263261079788 156:0.16748477518558502 157:0.2767953872680664 158:0.19341713190078735 159:0.22990243136882782 160:0.023033104836940765 161:0.059525128453969955 162:0.06154697760939598 163:0.18059556186199188 164:0.06484489887952805 165:0.017431039363145828 166:0.10838813334703445 167:0.09083288908004761 168:0.09120257943868637 169:0.136436328291893 170:0.14154300093650818 171:0.24074691534042358 172:0.022380445152521133 173:0.043861180543899536 174:0.5098574757575989 175:0.37351012229919434 176:0.08631257712841034 177:0.07131370157003403 178:0.025194352492690086 179:0.005479780957102776 180:0.0 181:0.13361726701259613 182:0.21050778031349182 183:0.036951612681150436 184:0.06386581808328629 185:0.02540452405810356 186:0.045202940702438354 187:0.5155583620071411 188:0.24534271657466888 189:0.40961769223213196 190:0.02562277391552925 191:0.026014763861894608 192:0.06876975297927856 193:0.07103609293699265 194:0.04159774258732796 195:0.01742861233651638 196:0.012578051537275314 197:0.0 198:0.0 199:0.2554396986961365 200:0.48046812415122986 201:0.3351980149745941 202:0.02405783161520958 203:0.026927443221211433 204:0.02453845553100109 205:0.006289025768637657 206:0.026573194190859795 207:0.06764005124568939 208:0.034093767404556274 209:0.019385546445846558 210:0.02515610307455063 211:0.046247683465480804 212:0.03112909011542797 213:0.027321120724081993 214:0.029606856405735016 215:0.0033146077767014503 216:0.004687563516199589 217:0.2617219090461731 218:0.020517829805612564 219:0.05039965361356735 220:0.032021358609199524 221:0.0391872301697731 222:0.014508296735584736 223:0.03925107419490814 224:0.015388373285531998 225:0.24466805160045624 226:0.19389228522777557 227:0.1278427690267563 228:0.16286465525627136 229:0.03946893662214279 230:0.07354962825775146 231:0.018916504457592964 232:0.09468866884708405 233:0.042430270463228226 234:0.01622076891362667 235:0.3549617826938629 236:0.07851894944906235 237:0.1366932988166809 238:0.04448438063263893 239:0.029821520671248436 240:0.005129457451403141 241:0.0032441536895930767 242:0.015388373285531998 243:0.1453067511320114 244:0.1429220587015152 245:0.09205398708581924 246:0.6723847985267639 247:0.2840160131454468 248:0.08064159005880356 249:0.1073104590177536 250:0.06097620353102684 251:0.008271001279354095 252:0.08206814527511597 253:0.08051680028438568 254:0.1912475824356079 255:0.2785604000091553 256:0.06125496327877045 257:0.12821167707443237 258:0.07530418783426285 259:0.47655799984931946 260:0.19909030199050903 261:0.06776635348796844 262:0.09275668114423752 263:0.3093711733818054 264:0.2052898108959198 265:0.038570139557123184 266:0.12543927133083344 267:0.11084044724702835 268:0.14620652794837952 269:0.0918036550283432 270:0.31745076179504395 271:0.03568932041525841 272:0.030629688873887062 273:0.13651326298713684 274:0.287377268075943 275:0.25793004035949707 276:0.06517346203327179 277:0.10254798829555511 278:0.1459578573703766 279:0.05942240357398987 280:0.039115216583013535 281:0.1695682406425476 282:0.1203281432390213 283:0.10326767712831497 284:0.08660648763179779 285:0.02037849649786949 286:0.003402695758268237 287:0.020783867686986923 288:0.047499775886535645 289:0.040725383907556534 290:0.05168277025222778 291:0.07027266174554825 292:0.32521191239356995 293:0.17878839373588562 294:0.23629945516586304 295:0.17648054659366608 296:0.0 297:0.01632560044527054 298:0.08315033465623856 299:0.008853800594806671 300:0.039197441190481186 301:0.021374965086579323 302:0.07523125410079956 303:0.08778522163629532 304:0.13242311775684357 305:0.06396784633398056 306:0.05775326117873192 307:0.12849929928779602 308:0.03407401964068413 309:0.016798904165625572 310:0.17729739844799042 311:0.15866298973560333 312:0.1616915464401245 313:0.3696243464946747 314:0.2997171878814697 315:0.24062767624855042 316:0.3629172146320343 317:0.1084979847073555 318:0.04219624027609825 319:0.039082564413547516 320:0.00791907962411642 321:0.0619766004383564 322:0.037364207208156586 323:0.29399093985557556 324:0.307990700006485 
